[
    [
        {
            "weights": null,
            "bias": null,
            "activation": 1,
            "error": null
        },
        {
            "weights": null,
            "bias": null,
            "activation": 0,
            "error": null
        },
        {
            "weights": null,
            "bias": null,
            "activation": 0,
            "error": null
        },
        {
            "weights": null,
            "bias": null,
            "activation": 1,
            "error": null
        },
        {
            "weights": null,
            "bias": null,
            "activation": 0,
            "error": null
        },
        {
            "weights": null,
            "bias": null,
            "activation": 0,
            "error": null
        },
        {
            "weights": null,
            "bias": null,
            "activation": 1,
            "error": null
        },
        {
            "weights": null,
            "bias": null,
            "activation": 0,
            "error": null
        },
        {
            "weights": null,
            "bias": null,
            "activation": 0,
            "error": null
        }
    ],
    [
        {
            "weights": [
                0.25586901687560704,
                0.3841264228188206,
                -0.3424463499222592,
                0.04352347304883895,
                0.452507225660932,
                0.5505733970783354,
                0.22129038210907132,
                -0.2677546389654951,
                0.13510192879203375
            ],
            "bias": -0.5210856085957104,
            "activation": 0,
            "error": -0.009268838014868207
        },
        {
            "weights": [
                0.3189284699866065,
                -0.03470106878101685,
                0.16170154626263433,
                0.6033756696602754,
                -0.04527851664134373,
                -0.07731447412891782,
                0.5729243420544352,
                -0.10788872714995552,
                0.0046249254479840424
            ],
            "bias": -0.5314566639044322,
            "activation": 0.9637718177968848,
            "error": 0.0
        },
        {
            "weights": [
                0.016571288264835508,
                -0.2547975712857634,
                -0.3391373938454906,
                0.8005046769207118,
                0.18027242509147545,
                0.6429854246011188,
                -0.19606466797869068,
                0.05583515722941079,
                -0.37450315503145803
            ],
            "bias": -0.6167903236550922,
            "activation": 0.004220973551764429,
            "error": -0.08120075757694936
        },
        {
            "weights": [
                -0.4721392560260437,
                0.48707564186241814,
                -0.21004990079821786,
                0.6689742084730635,
                0.6112355343065718,
                0.306325562197207,
                0.3714291958955898,
                0.7584261592586257,
                0.45139598768360917
            ],
            "bias": -0.5773787943459713,
            "activation": 0,
            "error": -0.11057949211113438
        },
        {
            "weights": [
                -0.022082737364140348,
                0.9127482054384779,
                0.14014491669533743,
                -0.09730214109678845,
                -0.21006666285912343,
                0.28676083616438575,
                0.21029944479487447,
                -0.166653429739601,
                -0.3593295516393285
            ],
            "bias": -0.10132059542291552,
            "activation": 0,
            "error": 0.0
        }
    ],
    [
        {
            "weights": [
                -0.14544081982750412,
                -0.870904080492632,
                0.057924078859441334,
                0.10755371707865188,
                0.16286634362079466
            ],
            "bias": 0.9311657295080531,
            "activation": 0.0920574167298206,
            "error": -0.12958750467914448
        },
        {
            "weights": [
                -0.15776302142378532,
                0.08663463510398788,
                0.2731416475327705,
                0.3553565287896787,
                0.40210011728530304
            ],
            "bias": 0.5467765155873083,
            "activation": 0.6314254590157697,
            "error": -0.03354296463958105
        },
        {
            "weights": [
                -0.3790204118464489,
                -0.3580475286117406,
                -0.5380008657670434,
                -0.6765226136841256,
                0.6285702524451731
            ],
            "bias": 1.4894348615752564,
            "activation": 1.142087856642208,
            "error": 0.07951774727031885
        },
        {
            "weights": [
                -0.21376864342439408,
                -0.4746540930553706,
                0.2742584665006516,
                0.4596222738082907,
                -0.1713492363510457
            ],
            "bias": 0.5049973798017618,
            "activation": 0.04869677944650236,
            "error": -0.04247520770350388
        },
        {
            "weights": [
                0.3720832448346262,
                -0.13234233099194298,
                0.3044017237225217,
                0.3436112721407497,
                0.08006922773781322
            ],
            "bias": 0.3003600446998291,
            "activation": 0.17409710741319145,
            "error": -0.033188832783354376
        }
    ],
    [
        {
            "weights": [
                0.9667521540238961,
                0.023584815766577925,
                -0.6626965194329911,
                0.4934031820494132,
                0.3624086420412294
            ],
            "bias": -0.6366209188906176,
            "activation": 0.09096876856935544,
            "error": -0.057866747020434706
        },
        {
            "weights": [
                -1.2726601397651907,
                -0.5560739064998715,
                0.7114561911425396,
                -0.24061436499715663,
                -0.2111302985809949
            ],
            "bias": 0.8036007103993918,
            "activation": 0.9090312314306446,
            "error": 0.0578667470204347
        }
    ]
]