[
    [
        {
            "weights": null,
            "bias": null,
            "activation": 1,
            "error": null
        },
        {
            "weights": null,
            "bias": null,
            "activation": 0,
            "error": null
        },
        {
            "weights": null,
            "bias": null,
            "activation": 0,
            "error": null
        },
        {
            "weights": null,
            "bias": null,
            "activation": 1,
            "error": null
        },
        {
            "weights": null,
            "bias": null,
            "activation": 0,
            "error": null
        },
        {
            "weights": null,
            "bias": null,
            "activation": 0,
            "error": null
        },
        {
            "weights": null,
            "bias": null,
            "activation": 1,
            "error": null
        },
        {
            "weights": null,
            "bias": null,
            "activation": 0,
            "error": null
        },
        {
            "weights": null,
            "bias": null,
            "activation": 0,
            "error": null
        }
    ],
    [
        {
            "weights": [
                0.18771184165442636,
                0.45413455643394907,
                0.06423269259188634,
                0.6025409597534842,
                -0.05067707357421172,
                -0.00431191944833602,
                0.030564794136891546,
                0.018435695965041216,
                0.4617780310761216
            ],
            "bias": 0.07578826303342967,
            "activation": 0.8966058585782318,
            "error": -0.8249224412157609
        },
        {
            "weights": [
                0.5099427804507266,
                -0.07484190227871385,
                -0.22175275098637887,
                0.366219724828899,
                0.493752191652023,
                0.4696423429940748,
                -0.09406003111112432,
                0.1179391159560294,
                -0.416886366483465
            ],
            "bias": 0.08271714266347074,
            "activation": 0.864819616831972,
            "error": -1.6680928778212534
        },
        {
            "weights": [
                0.651661535597041,
                0.27376678425120027,
                0.1751878062529671,
                0.04802664602165993,
                0.5827050282860428,
                0.599345121678309,
                -0.20172562502017988,
                -0.14314546638621395,
                0.3070177994317399
            ],
            "bias": 0.27407789639057756,
            "activation": 0.7720404529890986,
            "error": -1.577797216294109
        },
        {
            "weights": [
                -0.04181124963644783,
                0.2718500302004599,
                0.07395172879998008,
                0.1473122655232554,
                0.0819967383228266,
                0.3067556635479673,
                -0.09818969041375311,
                -0.44288496791282433,
                0.11136148930411044
            ],
            "bias": -0.003076327058190609,
            "activation": 0.004234998414863862,
            "error": -0.18171366990603588
        },
        {
            "weights": [
                0.31988424712871505,
                -0.2554846929693942,
                -0.44433299475380555,
                0.49594212998174075,
                -0.39477239005874204,
                0.3179166688924216,
                0.008371243155009502,
                0.23880473348735937,
                0.1886357639927248
            ],
            "bias": 0.18841200241194112,
            "activation": 1.0126096226774064,
            "error": -0.77511377316852
        }
    ],
    [
        {
            "weights": [
                -0.14215490872778797,
                -0.45578956797891884,
                0.4255466192407484,
                0.35187236570475794,
                -0.1795139538905159
            ],
            "bias": 0.0812494475417136,
            "activation": 0,
            "error": 0.22793630617825175
        },
        {
            "weights": [
                -0.02236311585640871,
                -0.0554680681341827,
                -0.17403008027279476,
                -0.11538322232528297,
                0.28210339224094294
            ],
            "bias": -0.4793443014818022,
            "activation": 0,
            "error": 0.0
        },
        {
            "weights": [
                0.3182424307722225,
                0.2723906901073482,
                0.31471653152458334,
                -0.5098755435334793,
                0.23845247367952405
            ],
            "bias": 0.0783308328946547,
            "activation": 1.0815115138623121,
            "error": -0.5343990947882453
        },
        {
            "weights": [
                0.2220688177857444,
                -0.28335110735038704,
                0.05717668023566236,
                -0.23834318344152516,
                0.06282630698371094
            ],
            "bias": -0.2769843225766738,
            "activation": 0,
            "error": 0.0
        },
        {
            "weights": [
                -0.17805653274444666,
                0.020564015508575006,
                -0.02812038883893342,
                -0.38248180241502294,
                -0.426849719663675
            ],
            "bias": -0.30973032249396726,
            "activation": 0,
            "error": 0.0
        }
    ],
    [
        {
            "weights": [
                -0.11565144723519753,
                -0.19264870961490357,
                0.0465460316598003,
                -0.3937119342445557,
                0.025661433554291135
            ],
            "bias": -0.4631519250625452,
            "activation": 0.6048471951506975,
            "error": 0.40360338340011426
        },
        {
            "weights": [
                -0.8450980280612725,
                -1.2017319162322158,
                -1.1293781422673665,
                -1.08981737928307,
                -1.0910654645704008
            ],
            "bias": 0.38292029015248097,
            "activation": 0.3951528048493026,
            "error": -0.40360338340011415
        }
    ]
]