[
    [
        {
            "weights": null,
            "bias": null,
            "activation": 1,
            "error": null
        },
        {
            "weights": null,
            "bias": null,
            "activation": 0,
            "error": null
        },
        {
            "weights": null,
            "bias": null,
            "activation": 0,
            "error": null
        },
        {
            "weights": null,
            "bias": null,
            "activation": 1,
            "error": null
        },
        {
            "weights": null,
            "bias": null,
            "activation": 0,
            "error": null
        },
        {
            "weights": null,
            "bias": null,
            "activation": 0,
            "error": null
        },
        {
            "weights": null,
            "bias": null,
            "activation": 1,
            "error": null
        },
        {
            "weights": null,
            "bias": null,
            "activation": 0,
            "error": null
        },
        {
            "weights": null,
            "bias": null,
            "activation": 0,
            "error": null
        }
    ],
    [
        {
            "weights": [
                0.19148806640078814,
                0.4568992030107766,
                -0.33564668932458996,
                0.47113604068487525,
                -0.3116870104964794,
                0.45782778814670155,
                -0.4317506714993985,
                0.21466034219867397,
                -0.011250985878685721
            ],
            "bias": 0.14183039967696998,
            "activation": 0.37270383526323486,
            "error": -0.5499201418861405
        },
        {
            "weights": [
                -0.09652791378588158,
                0.2026134501256672,
                0.4800581708031047,
                0.42719889783928816,
                0.17126620299764403,
                -0.49701041532520657,
                -0.48063013907034763,
                0.309300280455644,
                0.01597179680434455
            ],
            "bias": -0.3601581115574495,
            "activation": 0,
            "error": 0.0
        },
        {
            "weights": [
                0.019344486791650684,
                -0.0919449703899472,
                0.11141832193565959,
                -0.23717006171843136,
                -0.11403483725706709,
                -0.3119763517860843,
                0.2126319544349491,
                -0.18126786497516156,
                0.16681231765417337
            ],
            "bias": -0.4741373011314497,
            "activation": 0,
            "error": 0.0
        },
        {
            "weights": [
                0.3551180539230193,
                -0.3619352990771515,
                0.27334687994328866,
                0.046078271977953014,
                0.09412407600550954,
                0.38557379191577124,
                0.2802333571591883,
                0.13168754052766943,
                -0.2880364710231882
            ],
            "bias": 0.11963660478086202,
            "activation": 0.8010662878410226,
            "error": -1.0189999783536503
        },
        {
            "weights": [
                -0.4769033529187079,
                0.23186070389945407,
                0.2111937368595031,
                0.05717094222286793,
                -0.040809150138238236,
                -0.31036376080070704,
                -0.16129671261300788,
                0.391561914759581,
                0.05645227734881179
            ],
            "bias": 0.08093058141703391,
            "activation": 0,
            "error": -0.0
        }
    ],
    [
        {
            "weights": [
                -0.32883635857691174,
                0.4759863329511721,
                0.4765906162722314,
                0.4858062137164474,
                0.20529370124044488
            ],
            "bias": -0.3878666704200593,
            "activation": 0,
            "error": -0.0
        },
        {
            "weights": [
                -0.15539093064418258,
                -0.24888152132304825,
                0.026748370686299806,
                0.25700908517660354,
                -0.2681052318127292
            ],
            "bias": -0.04477719949156811,
            "activation": 0.1031893184960607,
            "error": -0.05271053045505469
        },
        {
            "weights": [
                0.41321368541558756,
                0.2468477053430403,
                -0.2716499055472651,
                -0.3300534846100839,
                -0.16890794473301524
            ],
            "bias": 0.2977292956100889,
            "activation": 0.1873409012421402,
            "error": -0.17755760861373315
        },
        {
            "weights": [
                0.07580509451423183,
                -0.24241366435362716,
                -0.4315877333797631,
                0.35569155950311293,
                0.4812183675933339
            ],
            "bias": 0.2291715210059082,
            "activation": 0.5423568876513973,
            "error": -0.6790200787962786
        },
        {
            "weights": [
                0.27427354860355013,
                0.054513309255082,
                -0.21690949605602064,
                0.10025675655909014,
                0.01112901481103599
            ],
            "bias": -0.05174986067061693,
            "activation": 0.13078525061295487,
            "error": -0.2225088432236026
        }
    ],
    [
        {
            "weights": [
                -0.20059251880318604,
                -0.149298111987434,
                0.4440084194181829,
                0.39643022028665,
                -0.10061022982503662
            ],
            "bias": -0.4206152633164655,
            "activation": 0.5384261139640107,
            "error": -0.5381096765111987
        },
        {
            "weights": [
                -0.3609272496868234,
                -0.05574716375083528,
                0.4623543507534726,
                0.14143876255014376,
                -0.27148787895564125
            ],
            "bias": -0.42706915483672536,
            "activation": 0.4615738860359892,
            "error": 0.5381096765111988
        }
    ]
]