[
    [
        [
            {
                "weights": null,
                "bias": null,
                "activation": 0,
                "error": null
            },
            {
                "weights": null,
                "bias": null,
                "activation": 0,
                "error": null
            },
            {
                "weights": null,
                "bias": null,
                "activation": 1,
                "error": null
            },
            {
                "weights": null,
                "bias": null,
                "activation": 0,
                "error": null
            },
            {
                "weights": null,
                "bias": null,
                "activation": 0,
                "error": null
            },
            {
                "weights": null,
                "bias": null,
                "activation": 1,
                "error": null
            },
            {
                "weights": null,
                "bias": null,
                "activation": 0,
                "error": null
            },
            {
                "weights": null,
                "bias": null,
                "activation": 0,
                "error": null
            },
            {
                "weights": null,
                "bias": null,
                "activation": 1,
                "error": null
            }
        ],
        [
            {
                "weights": [
                    0.10555279585032559,
                    -0.0887685780665384,
                    0.6629824308169441,
                    0.2154040572825434,
                    0.058509934014942026,
                    0.6075671838167084,
                    20.12201773619355,
                    19.429599430637143,
                    20.14346561817502
                ],
                "bias": 0.3621221103600253,
                "activation": 21.7761373431687,
                "error": 60.057204895365736
            },
            {
                "weights": [
                    -0.43591715218111593,
                    -0.3928829370892537,
                    -0.22772896895495842,
                    0.11913579288009324,
                    -0.11570636907223342,
                    -0.12917700384116126,
                    -0.07071128672577465,
                    -0.48151531640920286,
                    -0.4091170692601068
                ],
                "bias": -0.14532893185646967,
                "activation": 0,
                "error": 0.0
            },
            {
                "weights": [
                    -0.3812280389346035,
                    -0.152451746795714,
                    0.24908720805652396,
                    -0.46695469640161524,
                    -0.46083487612897533,
                    0.04622316964552765,
                    -0.44315513674912504,
                    0.45132190456931204,
                    -0.2813449422014498
                ],
                "bias": 0.28786182388299486,
                "activation": 0.30182725938359667,
                "error": 0.014683649501732066
            },
            {
                "weights": [
                    -0.3056919839555806,
                    -0.024679751128532885,
                    0.37341667277583107,
                    -0.44017451108441474,
                    0.09302527301329411,
                    -0.09696516997697426,
                    -0.012571018654755286,
                    0.17337524195375661,
                    0.5000567901254984
                ],
                "bias": 0.20656378732131264,
                "activation": 0.9830720802456678,
                "error": 0.8674248007458124
            },
            {
                "weights": [
                    0.2656335480335481,
                    0.13263622507040418,
                    -0.43776733329157846,
                    -0.29262160140894056,
                    -0.1224094527969547,
                    -0.20590879762266345,
                    0.5619672687541826,
                    0.18024614992976168,
                    -0.007516943989061909
                ],
                "bias": -0.11579241195234857,
                "activation": 0,
                "error": 0.6189040627425337
            }
        ],
        [
            {
                "weights": [
                    -0.013828792302145617,
                    -0.3446724500220911,
                    0.1372030819661993,
                    -0.1859449373651612,
                    -0.10661288618755203
                ],
                "bias": 0.381338528598696,
                "activation": 0,
                "error": 0.0
            },
            {
                "weights": [
                    -0.02632155198079944,
                    -0.28164792712141207,
                    0.1583660765849766,
                    0.22981307233224424,
                    -0.27935332138430247
                ],
                "bias": -0.3304193822873692,
                "activation": 0,
                "error": 0.0
            },
            {
                "weights": [
                    -0.005976858283248746,
                    0.4135385391974197,
                    0.07203060954984575,
                    -0.4848584154974631,
                    -0.3743982988275651
                ],
                "bias": 0.32058977206128136,
                "activation": 0,
                "error": 0.0
            },
            {
                "weights": [
                    -0.18496490747714686,
                    -0.3305431830359178,
                    0.4675477187103618,
                    0.2761315013018081,
                    -0.19934499679250217
                ],
                "bias": 0.08796578599397065,
                "activation": 0,
                "error": 0.0
            },
            {
                "weights": [
                    -0.3631272822731343,
                    0.34432758782864537,
                    -0.19391269969689306,
                    0.31064293976575197,
                    -0.41448094669313607
                ],
                "bias": 0.0037726689231287747,
                "activation": 0,
                "error": 0.0
            }
        ],
        [
            {
                "weights": [
                    -0.600817120453265,
                    -0.28442678074053396,
                    -0.301138065842112,
                    0.35553055767353997,
                    -0.12032577237640507
                ],
                "bias": -0.16764525071054948,
                "activation": 0.4826247788122604,
                "error": -0.5173752211877396
            },
            {
                "weights": [
                    -0.7052140475930044,
                    0.3371364974735368,
                    -0.46791893352398317,
                    0.3514662183273721,
                    0.09284649150164481
                ],
                "bias": -0.09811636940539759,
                "activation": 0.5173752211877396,
                "error": 0.5173752211877396
            }
        ]
    ],
    [
        [
            {
                "weights": null,
                "bias": null,
                "activation": 0,
                "error": null
            },
            {
                "weights": null,
                "bias": null,
                "activation": 0,
                "error": null
            },
            {
                "weights": null,
                "bias": null,
                "activation": 1,
                "error": null
            },
            {
                "weights": null,
                "bias": null,
                "activation": 0,
                "error": null
            },
            {
                "weights": null,
                "bias": null,
                "activation": 0,
                "error": null
            },
            {
                "weights": null,
                "bias": null,
                "activation": 1,
                "error": null
            },
            {
                "weights": null,
                "bias": null,
                "activation": 0,
                "error": null
            },
            {
                "weights": null,
                "bias": null,
                "activation": 0,
                "error": null
            },
            {
                "weights": null,
                "bias": null,
                "activation": 1,
                "error": null
            }
        ],
        [
            {
                "weights": [
                    0.10555279585032559,
                    -0.0887685780665384,
                    0.6629824308169441,
                    0.2154040572825434,
                    0.058509934014942026,
                    0.6075671838167084,
                    20.12201773619355,
                    19.429599430637143,
                    20.14346561817502
                ],
                "bias": 0.3621221103600253,
                "activation": 21.7761373431687,
                "error": 60.057204895365736
            },
            {
                "weights": [
                    -0.43591715218111593,
                    -0.3928829370892537,
                    -0.22772896895495842,
                    0.11913579288009324,
                    -0.11570636907223342,
                    -0.12917700384116126,
                    -0.07071128672577465,
                    -0.48151531640920286,
                    -0.4091170692601068
                ],
                "bias": -0.14532893185646967,
                "activation": 0,
                "error": 0.0
            },
            {
                "weights": [
                    -0.3812280389346035,
                    -0.152451746795714,
                    0.24908720805652396,
                    -0.46695469640161524,
                    -0.46083487612897533,
                    0.04622316964552765,
                    -0.44315513674912504,
                    0.45132190456931204,
                    -0.2813449422014498
                ],
                "bias": 0.28786182388299486,
                "activation": 0.30182725938359667,
                "error": 0.014683649501732066
            },
            {
                "weights": [
                    -0.3056919839555806,
                    -0.024679751128532885,
                    0.37341667277583107,
                    -0.44017451108441474,
                    0.09302527301329411,
                    -0.09696516997697426,
                    -0.012571018654755286,
                    0.17337524195375661,
                    0.5000567901254984
                ],
                "bias": 0.20656378732131264,
                "activation": 0.9830720802456678,
                "error": 0.8674248007458124
            },
            {
                "weights": [
                    0.2656335480335481,
                    0.13263622507040418,
                    -0.43776733329157846,
                    -0.29262160140894056,
                    -0.1224094527969547,
                    -0.20590879762266345,
                    0.5619672687541826,
                    0.18024614992976168,
                    -0.007516943989061909
                ],
                "bias": -0.11579241195234857,
                "activation": 0,
                "error": 0.6189040627425337
            }
        ],
        [
            {
                "weights": [
                    -0.013828792302145617,
                    -0.3446724500220911,
                    0.1372030819661993,
                    -0.1859449373651612,
                    -0.10661288618755203
                ],
                "bias": 0.381338528598696,
                "activation": 0,
                "error": 0.0
            },
            {
                "weights": [
                    -0.02632155198079944,
                    -0.28164792712141207,
                    0.1583660765849766,
                    0.22981307233224424,
                    -0.27935332138430247
                ],
                "bias": -0.3304193822873692,
                "activation": 0,
                "error": 0.0
            },
            {
                "weights": [
                    -0.005976858283248746,
                    0.4135385391974197,
                    0.07203060954984575,
                    -0.4848584154974631,
                    -0.3743982988275651
                ],
                "bias": 0.32058977206128136,
                "activation": 0,
                "error": 0.0
            },
            {
                "weights": [
                    -0.18496490747714686,
                    -0.3305431830359178,
                    0.4675477187103618,
                    0.2761315013018081,
                    -0.19934499679250217
                ],
                "bias": 0.08796578599397065,
                "activation": 0,
                "error": 0.0
            },
            {
                "weights": [
                    -0.3631272822731343,
                    0.34432758782864537,
                    -0.19391269969689306,
                    0.31064293976575197,
                    -0.41448094669313607
                ],
                "bias": 0.0037726689231287747,
                "activation": 0,
                "error": 0.0
            }
        ],
        [
            {
                "weights": [
                    -0.600817120453265,
                    -0.28442678074053396,
                    -0.301138065842112,
                    0.35553055767353997,
                    -0.12032577237640507
                ],
                "bias": -0.16764525071054948,
                "activation": 0.4826247788122604,
                "error": -0.5173752211877396
            },
            {
                "weights": [
                    -0.7052140475930044,
                    0.3371364974735368,
                    -0.46791893352398317,
                    0.3514662183273721,
                    0.09284649150164481
                ],
                "bias": -0.09811636940539759,
                "activation": 0.5173752211877396,
                "error": 0.5173752211877396
            }
        ]
    ],
    [
        [
            {
                "weights": null,
                "bias": null,
                "activation": 0,
                "error": null
            },
            {
                "weights": null,
                "bias": null,
                "activation": 0,
                "error": null
            },
            {
                "weights": null,
                "bias": null,
                "activation": 1,
                "error": null
            },
            {
                "weights": null,
                "bias": null,
                "activation": 0,
                "error": null
            },
            {
                "weights": null,
                "bias": null,
                "activation": 0,
                "error": null
            },
            {
                "weights": null,
                "bias": null,
                "activation": 1,
                "error": null
            },
            {
                "weights": null,
                "bias": null,
                "activation": 0,
                "error": null
            },
            {
                "weights": null,
                "bias": null,
                "activation": 0,
                "error": null
            },
            {
                "weights": null,
                "bias": null,
                "activation": 1,
                "error": null
            }
        ],
        [
            {
                "weights": [
                    0.10555279585032559,
                    -0.0887685780665384,
                    0.6629824308169441,
                    0.2154040572825434,
                    0.058509934014942026,
                    0.6075671838167084,
                    20.12201773619355,
                    19.429599430637143,
                    20.14346561817502
                ],
                "bias": 0.3621221103600253,
                "activation": 21.7761373431687,
                "error": 60.057204895365736
            },
            {
                "weights": [
                    -0.43591715218111593,
                    -0.3928829370892537,
                    -0.22772896895495842,
                    0.11913579288009324,
                    -0.11570636907223342,
                    -0.12917700384116126,
                    -0.07071128672577465,
                    -0.48151531640920286,
                    -0.4091170692601068
                ],
                "bias": -0.14532893185646967,
                "activation": 0,
                "error": 0.0
            },
            {
                "weights": [
                    -0.3812280389346035,
                    -0.152451746795714,
                    0.24908720805652396,
                    -0.46695469640161524,
                    -0.46083487612897533,
                    0.04622316964552765,
                    -0.44315513674912504,
                    0.45132190456931204,
                    -0.2813449422014498
                ],
                "bias": 0.28786182388299486,
                "activation": 0.30182725938359667,
                "error": 0.014683649501732066
            },
            {
                "weights": [
                    -0.3056919839555806,
                    -0.024679751128532885,
                    0.37341667277583107,
                    -0.44017451108441474,
                    0.09302527301329411,
                    -0.09696516997697426,
                    -0.012571018654755286,
                    0.17337524195375661,
                    0.5000567901254984
                ],
                "bias": 0.20656378732131264,
                "activation": 0.9830720802456678,
                "error": 0.8674248007458124
            },
            {
                "weights": [
                    0.2656335480335481,
                    0.13263622507040418,
                    -0.43776733329157846,
                    -0.29262160140894056,
                    -0.1224094527969547,
                    -0.20590879762266345,
                    0.5619672687541826,
                    0.18024614992976168,
                    -0.007516943989061909
                ],
                "bias": -0.11579241195234857,
                "activation": 0,
                "error": 0.6189040627425337
            }
        ],
        [
            {
                "weights": [
                    -0.013828792302145617,
                    -0.3446724500220911,
                    0.1372030819661993,
                    -0.1859449373651612,
                    -0.10661288618755203
                ],
                "bias": 0.381338528598696,
                "activation": 0,
                "error": 0.0
            },
            {
                "weights": [
                    -0.02632155198079944,
                    -0.28164792712141207,
                    0.1583660765849766,
                    0.22981307233224424,
                    -0.27935332138430247
                ],
                "bias": -0.3304193822873692,
                "activation": 0,
                "error": 0.0
            },
            {
                "weights": [
                    -0.005976858283248746,
                    0.4135385391974197,
                    0.07203060954984575,
                    -0.4848584154974631,
                    -0.3743982988275651
                ],
                "bias": 0.32058977206128136,
                "activation": 0,
                "error": 0.0
            },
            {
                "weights": [
                    -0.18496490747714686,
                    -0.3305431830359178,
                    0.4675477187103618,
                    0.2761315013018081,
                    -0.19934499679250217
                ],
                "bias": 0.08796578599397065,
                "activation": 0,
                "error": 0.0
            },
            {
                "weights": [
                    -0.3631272822731343,
                    0.34432758782864537,
                    -0.19391269969689306,
                    0.31064293976575197,
                    -0.41448094669313607
                ],
                "bias": 0.0037726689231287747,
                "activation": 0,
                "error": 0.0
            }
        ],
        [
            {
                "weights": [
                    -0.600817120453265,
                    -0.28442678074053396,
                    -0.301138065842112,
                    0.35553055767353997,
                    -0.12032577237640507
                ],
                "bias": -0.16764525071054948,
                "activation": 0.4826247788122604,
                "error": -0.5173752211877396
            },
            {
                "weights": [
                    -0.7052140475930044,
                    0.3371364974735368,
                    -0.46791893352398317,
                    0.3514662183273721,
                    0.09284649150164481
                ],
                "bias": -0.09811636940539759,
                "activation": 0.5173752211877396,
                "error": 0.5173752211877396
            }
        ]
    ],
    [
        [
            {
                "weights": null,
                "bias": null,
                "activation": 0,
                "error": null
            },
            {
                "weights": null,
                "bias": null,
                "activation": 0,
                "error": null
            },
            {
                "weights": null,
                "bias": null,
                "activation": 1,
                "error": null
            },
            {
                "weights": null,
                "bias": null,
                "activation": 0,
                "error": null
            },
            {
                "weights": null,
                "bias": null,
                "activation": 0,
                "error": null
            },
            {
                "weights": null,
                "bias": null,
                "activation": 1,
                "error": null
            },
            {
                "weights": null,
                "bias": null,
                "activation": 0,
                "error": null
            },
            {
                "weights": null,
                "bias": null,
                "activation": 0,
                "error": null
            },
            {
                "weights": null,
                "bias": null,
                "activation": 1,
                "error": null
            }
        ],
        [
            {
                "weights": [
                    0.10555279585032559,
                    -0.0887685780665384,
                    0.6629824308169441,
                    0.2154040572825434,
                    0.058509934014942026,
                    0.6075671838167084,
                    20.12201773619355,
                    19.429599430637143,
                    20.14346561817502
                ],
                "bias": 0.3621221103600253,
                "activation": 21.7761373431687,
                "error": 60.057204895365736
            },
            {
                "weights": [
                    -0.43591715218111593,
                    -0.3928829370892537,
                    -0.22772896895495842,
                    0.11913579288009324,
                    -0.11570636907223342,
                    -0.12917700384116126,
                    -0.07071128672577465,
                    -0.48151531640920286,
                    -0.4091170692601068
                ],
                "bias": -0.14532893185646967,
                "activation": 0,
                "error": 0.0
            },
            {
                "weights": [
                    -0.3812280389346035,
                    -0.152451746795714,
                    0.24908720805652396,
                    -0.46695469640161524,
                    -0.46083487612897533,
                    0.04622316964552765,
                    -0.44315513674912504,
                    0.45132190456931204,
                    -0.2813449422014498
                ],
                "bias": 0.28786182388299486,
                "activation": 0.30182725938359667,
                "error": 0.014683649501732066
            },
            {
                "weights": [
                    -0.3056919839555806,
                    -0.024679751128532885,
                    0.37341667277583107,
                    -0.44017451108441474,
                    0.09302527301329411,
                    -0.09696516997697426,
                    -0.012571018654755286,
                    0.17337524195375661,
                    0.5000567901254984
                ],
                "bias": 0.20656378732131264,
                "activation": 0.9830720802456678,
                "error": 0.8674248007458124
            },
            {
                "weights": [
                    0.2656335480335481,
                    0.13263622507040418,
                    -0.43776733329157846,
                    -0.29262160140894056,
                    -0.1224094527969547,
                    -0.20590879762266345,
                    0.5619672687541826,
                    0.18024614992976168,
                    -0.007516943989061909
                ],
                "bias": -0.11579241195234857,
                "activation": 0,
                "error": 0.6189040627425337
            }
        ],
        [
            {
                "weights": [
                    -0.013828792302145617,
                    -0.3446724500220911,
                    0.1372030819661993,
                    -0.1859449373651612,
                    -0.10661288618755203
                ],
                "bias": 0.381338528598696,
                "activation": 0,
                "error": 0.0
            },
            {
                "weights": [
                    -0.02632155198079944,
                    -0.28164792712141207,
                    0.1583660765849766,
                    0.22981307233224424,
                    -0.27935332138430247
                ],
                "bias": -0.3304193822873692,
                "activation": 0,
                "error": 0.0
            },
            {
                "weights": [
                    -0.005976858283248746,
                    0.4135385391974197,
                    0.07203060954984575,
                    -0.4848584154974631,
                    -0.3743982988275651
                ],
                "bias": 0.32058977206128136,
                "activation": 0,
                "error": 0.0
            },
            {
                "weights": [
                    -0.18496490747714686,
                    -0.3305431830359178,
                    0.4675477187103618,
                    0.2761315013018081,
                    -0.19934499679250217
                ],
                "bias": 0.08796578599397065,
                "activation": 0,
                "error": 0.0
            },
            {
                "weights": [
                    -0.3631272822731343,
                    0.34432758782864537,
                    -0.19391269969689306,
                    0.31064293976575197,
                    -0.41448094669313607
                ],
                "bias": 0.0037726689231287747,
                "activation": 0,
                "error": 0.0
            }
        ],
        [
            {
                "weights": [
                    -0.600817120453265,
                    -0.28442678074053396,
                    -0.301138065842112,
                    0.35553055767353997,
                    -0.12032577237640507
                ],
                "bias": -0.16764525071054948,
                "activation": 0.4826247788122604,
                "error": -0.5173752211877396
            },
            {
                "weights": [
                    -0.7052140475930044,
                    0.3371364974735368,
                    -0.46791893352398317,
                    0.3514662183273721,
                    0.09284649150164481
                ],
                "bias": -0.09811636940539759,
                "activation": 0.5173752211877396,
                "error": 0.5173752211877396
            }
        ]
    ],
    [
        [
            {
                "weights": null,
                "bias": null,
                "activation": 0,
                "error": null
            },
            {
                "weights": null,
                "bias": null,
                "activation": 0,
                "error": null
            },
            {
                "weights": null,
                "bias": null,
                "activation": 1,
                "error": null
            },
            {
                "weights": null,
                "bias": null,
                "activation": 0,
                "error": null
            },
            {
                "weights": null,
                "bias": null,
                "activation": 0,
                "error": null
            },
            {
                "weights": null,
                "bias": null,
                "activation": 1,
                "error": null
            },
            {
                "weights": null,
                "bias": null,
                "activation": 0,
                "error": null
            },
            {
                "weights": null,
                "bias": null,
                "activation": 0,
                "error": null
            },
            {
                "weights": null,
                "bias": null,
                "activation": 1,
                "error": null
            }
        ],
        [
            {
                "weights": [
                    0.10555279585032559,
                    -0.0887685780665384,
                    0.6629824308169441,
                    0.2154040572825434,
                    0.058509934014942026,
                    0.6075671838167084,
                    20.12201773619355,
                    19.429599430637143,
                    20.14346561817502
                ],
                "bias": 0.3621221103600253,
                "activation": 21.7761373431687,
                "error": 60.057204895365736
            },
            {
                "weights": [
                    -0.43591715218111593,
                    -0.3928829370892537,
                    -0.22772896895495842,
                    0.11913579288009324,
                    -0.11570636907223342,
                    -0.12917700384116126,
                    -0.07071128672577465,
                    -0.48151531640920286,
                    -0.4091170692601068
                ],
                "bias": -0.14532893185646967,
                "activation": 0,
                "error": 0.0
            },
            {
                "weights": [
                    -0.3812280389346035,
                    -0.152451746795714,
                    0.24908720805652396,
                    -0.46695469640161524,
                    -0.46083487612897533,
                    0.04622316964552765,
                    -0.44315513674912504,
                    0.45132190456931204,
                    -0.2813449422014498
                ],
                "bias": 0.28786182388299486,
                "activation": 0.30182725938359667,
                "error": 0.014683649501732066
            },
            {
                "weights": [
                    -0.3056919839555806,
                    -0.024679751128532885,
                    0.37341667277583107,
                    -0.44017451108441474,
                    0.09302527301329411,
                    -0.09696516997697426,
                    -0.012571018654755286,
                    0.17337524195375661,
                    0.5000567901254984
                ],
                "bias": 0.20656378732131264,
                "activation": 0.9830720802456678,
                "error": 0.8674248007458124
            },
            {
                "weights": [
                    0.2656335480335481,
                    0.13263622507040418,
                    -0.43776733329157846,
                    -0.29262160140894056,
                    -0.1224094527969547,
                    -0.20590879762266345,
                    0.5619672687541826,
                    0.18024614992976168,
                    -0.007516943989061909
                ],
                "bias": -0.11579241195234857,
                "activation": 0,
                "error": 0.6189040627425337
            }
        ],
        [
            {
                "weights": [
                    -0.013828792302145617,
                    -0.3446724500220911,
                    0.1372030819661993,
                    -0.1859449373651612,
                    -0.10661288618755203
                ],
                "bias": 0.381338528598696,
                "activation": 0,
                "error": 0.0
            },
            {
                "weights": [
                    -0.02632155198079944,
                    -0.28164792712141207,
                    0.1583660765849766,
                    0.22981307233224424,
                    -0.27935332138430247
                ],
                "bias": -0.3304193822873692,
                "activation": 0,
                "error": 0.0
            },
            {
                "weights": [
                    -0.005976858283248746,
                    0.4135385391974197,
                    0.07203060954984575,
                    -0.4848584154974631,
                    -0.3743982988275651
                ],
                "bias": 0.32058977206128136,
                "activation": 0,
                "error": 0.0
            },
            {
                "weights": [
                    -0.18496490747714686,
                    -0.3305431830359178,
                    0.4675477187103618,
                    0.2761315013018081,
                    -0.19934499679250217
                ],
                "bias": 0.08796578599397065,
                "activation": 0,
                "error": 0.0
            },
            {
                "weights": [
                    -0.3631272822731343,
                    0.34432758782864537,
                    -0.19391269969689306,
                    0.31064293976575197,
                    -0.41448094669313607
                ],
                "bias": 0.0037726689231287747,
                "activation": 0,
                "error": 0.0
            }
        ],
        [
            {
                "weights": [
                    -0.600817120453265,
                    -0.28442678074053396,
                    -0.301138065842112,
                    0.35553055767353997,
                    -0.12032577237640507
                ],
                "bias": -0.16764525071054948,
                "activation": 0.4826247788122604,
                "error": -0.5173752211877396
            },
            {
                "weights": [
                    -0.7052140475930044,
                    0.3371364974735368,
                    -0.46791893352398317,
                    0.3514662183273721,
                    0.09284649150164481
                ],
                "bias": -0.09811636940539759,
                "activation": 0.5173752211877396,
                "error": 0.5173752211877396
            }
        ]
    ],
    [
        [
            {
                "weights": null,
                "bias": null,
                "activation": 0,
                "error": null
            },
            {
                "weights": null,
                "bias": null,
                "activation": 0,
                "error": null
            },
            {
                "weights": null,
                "bias": null,
                "activation": 1,
                "error": null
            },
            {
                "weights": null,
                "bias": null,
                "activation": 0,
                "error": null
            },
            {
                "weights": null,
                "bias": null,
                "activation": 0,
                "error": null
            },
            {
                "weights": null,
                "bias": null,
                "activation": 1,
                "error": null
            },
            {
                "weights": null,
                "bias": null,
                "activation": 0,
                "error": null
            },
            {
                "weights": null,
                "bias": null,
                "activation": 0,
                "error": null
            },
            {
                "weights": null,
                "bias": null,
                "activation": 1,
                "error": null
            }
        ],
        [
            {
                "weights": [
                    0.10555279585032559,
                    -0.0887685780665384,
                    0.6629824308169441,
                    0.2154040572825434,
                    0.058509934014942026,
                    0.6075671838167084,
                    20.12201773619355,
                    19.429599430637143,
                    20.14346561817502
                ],
                "bias": 0.3621221103600253,
                "activation": 21.7761373431687,
                "error": 60.057204895365736
            },
            {
                "weights": [
                    -0.43591715218111593,
                    -0.3928829370892537,
                    -0.22772896895495842,
                    0.11913579288009324,
                    -0.11570636907223342,
                    -0.12917700384116126,
                    -0.07071128672577465,
                    -0.48151531640920286,
                    -0.4091170692601068
                ],
                "bias": -0.14532893185646967,
                "activation": 0,
                "error": 0.0
            },
            {
                "weights": [
                    -0.3812280389346035,
                    -0.152451746795714,
                    0.24908720805652396,
                    -0.46695469640161524,
                    -0.46083487612897533,
                    0.04622316964552765,
                    -0.44315513674912504,
                    0.45132190456931204,
                    -0.2813449422014498
                ],
                "bias": 0.28786182388299486,
                "activation": 0.30182725938359667,
                "error": 0.014683649501732066
            },
            {
                "weights": [
                    -0.3056919839555806,
                    -0.024679751128532885,
                    0.37341667277583107,
                    -0.44017451108441474,
                    0.09302527301329411,
                    -0.09696516997697426,
                    -0.012571018654755286,
                    0.17337524195375661,
                    0.5000567901254984
                ],
                "bias": 0.20656378732131264,
                "activation": 0.9830720802456678,
                "error": 0.8674248007458124
            },
            {
                "weights": [
                    0.2656335480335481,
                    0.13263622507040418,
                    -0.43776733329157846,
                    -0.29262160140894056,
                    -0.1224094527969547,
                    -0.20590879762266345,
                    0.5619672687541826,
                    0.18024614992976168,
                    -0.007516943989061909
                ],
                "bias": -0.11579241195234857,
                "activation": 0,
                "error": 0.6189040627425337
            }
        ],
        [
            {
                "weights": [
                    -0.013828792302145617,
                    -0.3446724500220911,
                    0.1372030819661993,
                    -0.1859449373651612,
                    -0.10661288618755203
                ],
                "bias": 0.381338528598696,
                "activation": 0,
                "error": 0.0
            },
            {
                "weights": [
                    -0.02632155198079944,
                    -0.28164792712141207,
                    0.1583660765849766,
                    0.22981307233224424,
                    -0.27935332138430247
                ],
                "bias": -0.3304193822873692,
                "activation": 0,
                "error": 0.0
            },
            {
                "weights": [
                    -0.005976858283248746,
                    0.4135385391974197,
                    0.07203060954984575,
                    -0.4848584154974631,
                    -0.3743982988275651
                ],
                "bias": 0.32058977206128136,
                "activation": 0,
                "error": 0.0
            },
            {
                "weights": [
                    -0.18496490747714686,
                    -0.3305431830359178,
                    0.4675477187103618,
                    0.2761315013018081,
                    -0.19934499679250217
                ],
                "bias": 0.08796578599397065,
                "activation": 0,
                "error": 0.0
            },
            {
                "weights": [
                    -0.3631272822731343,
                    0.34432758782864537,
                    -0.19391269969689306,
                    0.31064293976575197,
                    -0.41448094669313607
                ],
                "bias": 0.0037726689231287747,
                "activation": 0,
                "error": 0.0
            }
        ],
        [
            {
                "weights": [
                    -0.600817120453265,
                    -0.28442678074053396,
                    -0.301138065842112,
                    0.35553055767353997,
                    -0.12032577237640507
                ],
                "bias": -0.16764525071054948,
                "activation": 0.4826247788122604,
                "error": -0.5173752211877396
            },
            {
                "weights": [
                    -0.7052140475930044,
                    0.3371364974735368,
                    -0.46791893352398317,
                    0.3514662183273721,
                    0.09284649150164481
                ],
                "bias": -0.09811636940539759,
                "activation": 0.5173752211877396,
                "error": 0.5173752211877396
            }
        ]
    ],
    [
        [
            {
                "weights": null,
                "bias": null,
                "activation": 0,
                "error": null
            },
            {
                "weights": null,
                "bias": null,
                "activation": 0,
                "error": null
            },
            {
                "weights": null,
                "bias": null,
                "activation": 1,
                "error": null
            },
            {
                "weights": null,
                "bias": null,
                "activation": 0,
                "error": null
            },
            {
                "weights": null,
                "bias": null,
                "activation": 0,
                "error": null
            },
            {
                "weights": null,
                "bias": null,
                "activation": 1,
                "error": null
            },
            {
                "weights": null,
                "bias": null,
                "activation": 0,
                "error": null
            },
            {
                "weights": null,
                "bias": null,
                "activation": 0,
                "error": null
            },
            {
                "weights": null,
                "bias": null,
                "activation": 1,
                "error": null
            }
        ],
        [
            {
                "weights": [
                    0.10555279585032559,
                    -0.0887685780665384,
                    0.6629824308169441,
                    0.2154040572825434,
                    0.058509934014942026,
                    0.6075671838167084,
                    20.12201773619355,
                    19.429599430637143,
                    20.14346561817502
                ],
                "bias": 0.3621221103600253,
                "activation": 21.7761373431687,
                "error": 60.057204895365736
            },
            {
                "weights": [
                    -0.43591715218111593,
                    -0.3928829370892537,
                    -0.22772896895495842,
                    0.11913579288009324,
                    -0.11570636907223342,
                    -0.12917700384116126,
                    -0.07071128672577465,
                    -0.48151531640920286,
                    -0.4091170692601068
                ],
                "bias": -0.14532893185646967,
                "activation": 0,
                "error": 0.0
            },
            {
                "weights": [
                    -0.3812280389346035,
                    -0.152451746795714,
                    0.24908720805652396,
                    -0.46695469640161524,
                    -0.46083487612897533,
                    0.04622316964552765,
                    -0.44315513674912504,
                    0.45132190456931204,
                    -0.2813449422014498
                ],
                "bias": 0.28786182388299486,
                "activation": 0.30182725938359667,
                "error": 0.014683649501732066
            },
            {
                "weights": [
                    -0.3056919839555806,
                    -0.024679751128532885,
                    0.37341667277583107,
                    -0.44017451108441474,
                    0.09302527301329411,
                    -0.09696516997697426,
                    -0.012571018654755286,
                    0.17337524195375661,
                    0.5000567901254984
                ],
                "bias": 0.20656378732131264,
                "activation": 0.9830720802456678,
                "error": 0.8674248007458124
            },
            {
                "weights": [
                    0.2656335480335481,
                    0.13263622507040418,
                    -0.43776733329157846,
                    -0.29262160140894056,
                    -0.1224094527969547,
                    -0.20590879762266345,
                    0.5619672687541826,
                    0.18024614992976168,
                    -0.007516943989061909
                ],
                "bias": -0.11579241195234857,
                "activation": 0,
                "error": 0.6189040627425337
            }
        ],
        [
            {
                "weights": [
                    -0.013828792302145617,
                    -0.3446724500220911,
                    0.1372030819661993,
                    -0.1859449373651612,
                    -0.10661288618755203
                ],
                "bias": 0.381338528598696,
                "activation": 0,
                "error": 0.0
            },
            {
                "weights": [
                    -0.02632155198079944,
                    -0.28164792712141207,
                    0.1583660765849766,
                    0.22981307233224424,
                    -0.27935332138430247
                ],
                "bias": -0.3304193822873692,
                "activation": 0,
                "error": 0.0
            },
            {
                "weights": [
                    -0.005976858283248746,
                    0.4135385391974197,
                    0.07203060954984575,
                    -0.4848584154974631,
                    -0.3743982988275651
                ],
                "bias": 0.32058977206128136,
                "activation": 0,
                "error": 0.0
            },
            {
                "weights": [
                    -0.18496490747714686,
                    -0.3305431830359178,
                    0.4675477187103618,
                    0.2761315013018081,
                    -0.19934499679250217
                ],
                "bias": 0.08796578599397065,
                "activation": 0,
                "error": 0.0
            },
            {
                "weights": [
                    -0.3631272822731343,
                    0.34432758782864537,
                    -0.19391269969689306,
                    0.31064293976575197,
                    -0.41448094669313607
                ],
                "bias": 0.0037726689231287747,
                "activation": 0,
                "error": 0.0
            }
        ],
        [
            {
                "weights": [
                    -0.600817120453265,
                    -0.28442678074053396,
                    -0.301138065842112,
                    0.35553055767353997,
                    -0.12032577237640507
                ],
                "bias": -0.16764525071054948,
                "activation": 0.4826247788122604,
                "error": -0.5173752211877396
            },
            {
                "weights": [
                    -0.7052140475930044,
                    0.3371364974735368,
                    -0.46791893352398317,
                    0.3514662183273721,
                    0.09284649150164481
                ],
                "bias": -0.09811636940539759,
                "activation": 0.5173752211877396,
                "error": 0.5173752211877396
            }
        ]
    ],
    [
        [
            {
                "weights": null,
                "bias": null,
                "activation": 0,
                "error": null
            },
            {
                "weights": null,
                "bias": null,
                "activation": 0,
                "error": null
            },
            {
                "weights": null,
                "bias": null,
                "activation": 1,
                "error": null
            },
            {
                "weights": null,
                "bias": null,
                "activation": 0,
                "error": null
            },
            {
                "weights": null,
                "bias": null,
                "activation": 0,
                "error": null
            },
            {
                "weights": null,
                "bias": null,
                "activation": 1,
                "error": null
            },
            {
                "weights": null,
                "bias": null,
                "activation": 0,
                "error": null
            },
            {
                "weights": null,
                "bias": null,
                "activation": 0,
                "error": null
            },
            {
                "weights": null,
                "bias": null,
                "activation": 1,
                "error": null
            }
        ],
        [
            {
                "weights": [
                    0.10555279585032559,
                    -0.0887685780665384,
                    0.6629824308169441,
                    0.2154040572825434,
                    0.058509934014942026,
                    0.6075671838167084,
                    20.12201773619355,
                    19.429599430637143,
                    20.14346561817502
                ],
                "bias": 0.3621221103600253,
                "activation": 21.7761373431687,
                "error": 60.057204895365736
            },
            {
                "weights": [
                    -0.43591715218111593,
                    -0.3928829370892537,
                    -0.22772896895495842,
                    0.11913579288009324,
                    -0.11570636907223342,
                    -0.12917700384116126,
                    -0.07071128672577465,
                    -0.48151531640920286,
                    -0.4091170692601068
                ],
                "bias": -0.14532893185646967,
                "activation": 0,
                "error": 0.0
            },
            {
                "weights": [
                    -0.3812280389346035,
                    -0.152451746795714,
                    0.24908720805652396,
                    -0.46695469640161524,
                    -0.46083487612897533,
                    0.04622316964552765,
                    -0.44315513674912504,
                    0.45132190456931204,
                    -0.2813449422014498
                ],
                "bias": 0.28786182388299486,
                "activation": 0.30182725938359667,
                "error": 0.014683649501732066
            },
            {
                "weights": [
                    -0.3056919839555806,
                    -0.024679751128532885,
                    0.37341667277583107,
                    -0.44017451108441474,
                    0.09302527301329411,
                    -0.09696516997697426,
                    -0.012571018654755286,
                    0.17337524195375661,
                    0.5000567901254984
                ],
                "bias": 0.20656378732131264,
                "activation": 0.9830720802456678,
                "error": 0.8674248007458124
            },
            {
                "weights": [
                    0.2656335480335481,
                    0.13263622507040418,
                    -0.43776733329157846,
                    -0.29262160140894056,
                    -0.1224094527969547,
                    -0.20590879762266345,
                    0.5619672687541826,
                    0.18024614992976168,
                    -0.007516943989061909
                ],
                "bias": -0.11579241195234857,
                "activation": 0,
                "error": 0.6189040627425337
            }
        ],
        [
            {
                "weights": [
                    -0.013828792302145617,
                    -0.3446724500220911,
                    0.1372030819661993,
                    -0.1859449373651612,
                    -0.10661288618755203
                ],
                "bias": 0.381338528598696,
                "activation": 0,
                "error": 0.0
            },
            {
                "weights": [
                    -0.02632155198079944,
                    -0.28164792712141207,
                    0.1583660765849766,
                    0.22981307233224424,
                    -0.27935332138430247
                ],
                "bias": -0.3304193822873692,
                "activation": 0,
                "error": 0.0
            },
            {
                "weights": [
                    -0.005976858283248746,
                    0.4135385391974197,
                    0.07203060954984575,
                    -0.4848584154974631,
                    -0.3743982988275651
                ],
                "bias": 0.32058977206128136,
                "activation": 0,
                "error": 0.0
            },
            {
                "weights": [
                    -0.18496490747714686,
                    -0.3305431830359178,
                    0.4675477187103618,
                    0.2761315013018081,
                    -0.19934499679250217
                ],
                "bias": 0.08796578599397065,
                "activation": 0,
                "error": 0.0
            },
            {
                "weights": [
                    -0.3631272822731343,
                    0.34432758782864537,
                    -0.19391269969689306,
                    0.31064293976575197,
                    -0.41448094669313607
                ],
                "bias": 0.0037726689231287747,
                "activation": 0,
                "error": 0.0
            }
        ],
        [
            {
                "weights": [
                    -0.600817120453265,
                    -0.28442678074053396,
                    -0.301138065842112,
                    0.35553055767353997,
                    -0.12032577237640507
                ],
                "bias": -0.16764525071054948,
                "activation": 0.4826247788122604,
                "error": -0.5173752211877396
            },
            {
                "weights": [
                    -0.7052140475930044,
                    0.3371364974735368,
                    -0.46791893352398317,
                    0.3514662183273721,
                    0.09284649150164481
                ],
                "bias": -0.09811636940539759,
                "activation": 0.5173752211877396,
                "error": 0.5173752211877396
            }
        ]
    ],
    [
        [
            {
                "weights": null,
                "bias": null,
                "activation": 0,
                "error": null
            },
            {
                "weights": null,
                "bias": null,
                "activation": 0,
                "error": null
            },
            {
                "weights": null,
                "bias": null,
                "activation": 1,
                "error": null
            },
            {
                "weights": null,
                "bias": null,
                "activation": 0,
                "error": null
            },
            {
                "weights": null,
                "bias": null,
                "activation": 0,
                "error": null
            },
            {
                "weights": null,
                "bias": null,
                "activation": 1,
                "error": null
            },
            {
                "weights": null,
                "bias": null,
                "activation": 0,
                "error": null
            },
            {
                "weights": null,
                "bias": null,
                "activation": 0,
                "error": null
            },
            {
                "weights": null,
                "bias": null,
                "activation": 1,
                "error": null
            }
        ],
        [
            {
                "weights": [
                    0.10555279585032559,
                    -0.0887685780665384,
                    0.6629824308169441,
                    0.2154040572825434,
                    0.058509934014942026,
                    0.6075671838167084,
                    20.12201773619355,
                    19.429599430637143,
                    20.14346561817502
                ],
                "bias": 0.3621221103600253,
                "activation": 21.7761373431687,
                "error": 60.057204895365736
            },
            {
                "weights": [
                    -0.43591715218111593,
                    -0.3928829370892537,
                    -0.22772896895495842,
                    0.11913579288009324,
                    -0.11570636907223342,
                    -0.12917700384116126,
                    -0.07071128672577465,
                    -0.48151531640920286,
                    -0.4091170692601068
                ],
                "bias": -0.14532893185646967,
                "activation": 0,
                "error": 0.0
            },
            {
                "weights": [
                    -0.3812280389346035,
                    -0.152451746795714,
                    0.24908720805652396,
                    -0.46695469640161524,
                    -0.46083487612897533,
                    0.04622316964552765,
                    -0.44315513674912504,
                    0.45132190456931204,
                    -0.2813449422014498
                ],
                "bias": 0.28786182388299486,
                "activation": 0.30182725938359667,
                "error": 0.014683649501732066
            },
            {
                "weights": [
                    -0.3056919839555806,
                    -0.024679751128532885,
                    0.37341667277583107,
                    -0.44017451108441474,
                    0.09302527301329411,
                    -0.09696516997697426,
                    -0.012571018654755286,
                    0.17337524195375661,
                    0.5000567901254984
                ],
                "bias": 0.20656378732131264,
                "activation": 0.9830720802456678,
                "error": 0.8674248007458124
            },
            {
                "weights": [
                    0.2656335480335481,
                    0.13263622507040418,
                    -0.43776733329157846,
                    -0.29262160140894056,
                    -0.1224094527969547,
                    -0.20590879762266345,
                    0.5619672687541826,
                    0.18024614992976168,
                    -0.007516943989061909
                ],
                "bias": -0.11579241195234857,
                "activation": 0,
                "error": 0.6189040627425337
            }
        ],
        [
            {
                "weights": [
                    -0.013828792302145617,
                    -0.3446724500220911,
                    0.1372030819661993,
                    -0.1859449373651612,
                    -0.10661288618755203
                ],
                "bias": 0.381338528598696,
                "activation": 0,
                "error": 0.0
            },
            {
                "weights": [
                    -0.02632155198079944,
                    -0.28164792712141207,
                    0.1583660765849766,
                    0.22981307233224424,
                    -0.27935332138430247
                ],
                "bias": -0.3304193822873692,
                "activation": 0,
                "error": 0.0
            },
            {
                "weights": [
                    -0.005976858283248746,
                    0.4135385391974197,
                    0.07203060954984575,
                    -0.4848584154974631,
                    -0.3743982988275651
                ],
                "bias": 0.32058977206128136,
                "activation": 0,
                "error": 0.0
            },
            {
                "weights": [
                    -0.18496490747714686,
                    -0.3305431830359178,
                    0.4675477187103618,
                    0.2761315013018081,
                    -0.19934499679250217
                ],
                "bias": 0.08796578599397065,
                "activation": 0,
                "error": 0.0
            },
            {
                "weights": [
                    -0.3631272822731343,
                    0.34432758782864537,
                    -0.19391269969689306,
                    0.31064293976575197,
                    -0.41448094669313607
                ],
                "bias": 0.0037726689231287747,
                "activation": 0,
                "error": 0.0
            }
        ],
        [
            {
                "weights": [
                    -0.600817120453265,
                    -0.28442678074053396,
                    -0.301138065842112,
                    0.35553055767353997,
                    -0.12032577237640507
                ],
                "bias": -0.16764525071054948,
                "activation": 0.4826247788122604,
                "error": -0.5173752211877396
            },
            {
                "weights": [
                    -0.7052140475930044,
                    0.3371364974735368,
                    -0.46791893352398317,
                    0.3514662183273721,
                    0.09284649150164481
                ],
                "bias": -0.09811636940539759,
                "activation": 0.5173752211877396,
                "error": 0.5173752211877396
            }
        ]
    ],
    [
        [
            {
                "weights": null,
                "bias": null,
                "activation": 0,
                "error": null
            },
            {
                "weights": null,
                "bias": null,
                "activation": 0,
                "error": null
            },
            {
                "weights": null,
                "bias": null,
                "activation": 1,
                "error": null
            },
            {
                "weights": null,
                "bias": null,
                "activation": 0,
                "error": null
            },
            {
                "weights": null,
                "bias": null,
                "activation": 0,
                "error": null
            },
            {
                "weights": null,
                "bias": null,
                "activation": 1,
                "error": null
            },
            {
                "weights": null,
                "bias": null,
                "activation": 0,
                "error": null
            },
            {
                "weights": null,
                "bias": null,
                "activation": 0,
                "error": null
            },
            {
                "weights": null,
                "bias": null,
                "activation": 1,
                "error": null
            }
        ],
        [
            {
                "weights": [
                    0.10555279585032559,
                    -0.0887685780665384,
                    0.6629824308169441,
                    0.2154040572825434,
                    0.058509934014942026,
                    0.6075671838167084,
                    20.12201773619355,
                    19.429599430637143,
                    20.14346561817502
                ],
                "bias": 0.3621221103600253,
                "activation": 21.7761373431687,
                "error": 60.057204895365736
            },
            {
                "weights": [
                    -0.43591715218111593,
                    -0.3928829370892537,
                    -0.22772896895495842,
                    0.11913579288009324,
                    -0.11570636907223342,
                    -0.12917700384116126,
                    -0.07071128672577465,
                    -0.48151531640920286,
                    -0.4091170692601068
                ],
                "bias": -0.14532893185646967,
                "activation": 0,
                "error": 0.0
            },
            {
                "weights": [
                    -0.3812280389346035,
                    -0.152451746795714,
                    0.24908720805652396,
                    -0.46695469640161524,
                    -0.46083487612897533,
                    0.04622316964552765,
                    -0.44315513674912504,
                    0.45132190456931204,
                    -0.2813449422014498
                ],
                "bias": 0.28786182388299486,
                "activation": 0.30182725938359667,
                "error": 0.014683649501732066
            },
            {
                "weights": [
                    -0.3056919839555806,
                    -0.024679751128532885,
                    0.37341667277583107,
                    -0.44017451108441474,
                    0.09302527301329411,
                    -0.09696516997697426,
                    -0.012571018654755286,
                    0.17337524195375661,
                    0.5000567901254984
                ],
                "bias": 0.20656378732131264,
                "activation": 0.9830720802456678,
                "error": 0.8674248007458124
            },
            {
                "weights": [
                    0.2656335480335481,
                    0.13263622507040418,
                    -0.43776733329157846,
                    -0.29262160140894056,
                    -0.1224094527969547,
                    -0.20590879762266345,
                    0.5619672687541826,
                    0.18024614992976168,
                    -0.007516943989061909
                ],
                "bias": -0.11579241195234857,
                "activation": 0,
                "error": 0.6189040627425337
            }
        ],
        [
            {
                "weights": [
                    -0.013828792302145617,
                    -0.3446724500220911,
                    0.1372030819661993,
                    -0.1859449373651612,
                    -0.10661288618755203
                ],
                "bias": 0.381338528598696,
                "activation": 0,
                "error": 0.0
            },
            {
                "weights": [
                    -0.02632155198079944,
                    -0.28164792712141207,
                    0.1583660765849766,
                    0.22981307233224424,
                    -0.27935332138430247
                ],
                "bias": -0.3304193822873692,
                "activation": 0,
                "error": 0.0
            },
            {
                "weights": [
                    -0.005976858283248746,
                    0.4135385391974197,
                    0.07203060954984575,
                    -0.4848584154974631,
                    -0.3743982988275651
                ],
                "bias": 0.32058977206128136,
                "activation": 0,
                "error": 0.0
            },
            {
                "weights": [
                    -0.18496490747714686,
                    -0.3305431830359178,
                    0.4675477187103618,
                    0.2761315013018081,
                    -0.19934499679250217
                ],
                "bias": 0.08796578599397065,
                "activation": 0,
                "error": 0.0
            },
            {
                "weights": [
                    -0.3631272822731343,
                    0.34432758782864537,
                    -0.19391269969689306,
                    0.31064293976575197,
                    -0.41448094669313607
                ],
                "bias": 0.0037726689231287747,
                "activation": 0,
                "error": 0.0
            }
        ],
        [
            {
                "weights": [
                    -0.600817120453265,
                    -0.28442678074053396,
                    -0.301138065842112,
                    0.35553055767353997,
                    -0.12032577237640507
                ],
                "bias": -0.16764525071054948,
                "activation": 0.4826247788122604,
                "error": -0.5173752211877396
            },
            {
                "weights": [
                    -0.7052140475930044,
                    0.3371364974735368,
                    -0.46791893352398317,
                    0.3514662183273721,
                    0.09284649150164481
                ],
                "bias": -0.09811636940539759,
                "activation": 0.5173752211877396,
                "error": 0.5173752211877396
            }
        ]
    ],
    [
        [
            {
                "weights": null,
                "bias": null,
                "activation": 0,
                "error": null
            },
            {
                "weights": null,
                "bias": null,
                "activation": 0,
                "error": null
            },
            {
                "weights": null,
                "bias": null,
                "activation": 1,
                "error": null
            },
            {
                "weights": null,
                "bias": null,
                "activation": 0,
                "error": null
            },
            {
                "weights": null,
                "bias": null,
                "activation": 0,
                "error": null
            },
            {
                "weights": null,
                "bias": null,
                "activation": 1,
                "error": null
            },
            {
                "weights": null,
                "bias": null,
                "activation": 0,
                "error": null
            },
            {
                "weights": null,
                "bias": null,
                "activation": 0,
                "error": null
            },
            {
                "weights": null,
                "bias": null,
                "activation": 1,
                "error": null
            }
        ],
        [
            {
                "weights": [
                    0.10555279585032559,
                    -0.0887685780665384,
                    0.6629824308169441,
                    0.2154040572825434,
                    0.058509934014942026,
                    0.6075671838167084,
                    20.12201773619355,
                    19.429599430637143,
                    20.14346561817502
                ],
                "bias": 0.3621221103600253,
                "activation": 21.7761373431687,
                "error": 60.057204895365736
            },
            {
                "weights": [
                    -0.43591715218111593,
                    -0.3928829370892537,
                    -0.22772896895495842,
                    0.11913579288009324,
                    -0.11570636907223342,
                    -0.12917700384116126,
                    -0.07071128672577465,
                    -0.48151531640920286,
                    -0.4091170692601068
                ],
                "bias": -0.14532893185646967,
                "activation": 0,
                "error": 0.0
            },
            {
                "weights": [
                    -0.3812280389346035,
                    -0.152451746795714,
                    0.24908720805652396,
                    -0.46695469640161524,
                    -0.46083487612897533,
                    0.04622316964552765,
                    -0.44315513674912504,
                    0.45132190456931204,
                    -0.2813449422014498
                ],
                "bias": 0.28786182388299486,
                "activation": 0.30182725938359667,
                "error": 0.014683649501732066
            },
            {
                "weights": [
                    -0.3056919839555806,
                    -0.024679751128532885,
                    0.37341667277583107,
                    -0.44017451108441474,
                    0.09302527301329411,
                    -0.09696516997697426,
                    -0.012571018654755286,
                    0.17337524195375661,
                    0.5000567901254984
                ],
                "bias": 0.20656378732131264,
                "activation": 0.9830720802456678,
                "error": 0.8674248007458124
            },
            {
                "weights": [
                    0.2656335480335481,
                    0.13263622507040418,
                    -0.43776733329157846,
                    -0.29262160140894056,
                    -0.1224094527969547,
                    -0.20590879762266345,
                    0.5619672687541826,
                    0.18024614992976168,
                    -0.007516943989061909
                ],
                "bias": -0.11579241195234857,
                "activation": 0,
                "error": 0.6189040627425337
            }
        ],
        [
            {
                "weights": [
                    -0.013828792302145617,
                    -0.3446724500220911,
                    0.1372030819661993,
                    -0.1859449373651612,
                    -0.10661288618755203
                ],
                "bias": 0.381338528598696,
                "activation": 0,
                "error": 0.0
            },
            {
                "weights": [
                    -0.02632155198079944,
                    -0.28164792712141207,
                    0.1583660765849766,
                    0.22981307233224424,
                    -0.27935332138430247
                ],
                "bias": -0.3304193822873692,
                "activation": 0,
                "error": 0.0
            },
            {
                "weights": [
                    -0.005976858283248746,
                    0.4135385391974197,
                    0.07203060954984575,
                    -0.4848584154974631,
                    -0.3743982988275651
                ],
                "bias": 0.32058977206128136,
                "activation": 0,
                "error": 0.0
            },
            {
                "weights": [
                    -0.18496490747714686,
                    -0.3305431830359178,
                    0.4675477187103618,
                    0.2761315013018081,
                    -0.19934499679250217
                ],
                "bias": 0.08796578599397065,
                "activation": 0,
                "error": 0.0
            },
            {
                "weights": [
                    -0.3631272822731343,
                    0.34432758782864537,
                    -0.19391269969689306,
                    0.31064293976575197,
                    -0.41448094669313607
                ],
                "bias": 0.0037726689231287747,
                "activation": 0,
                "error": 0.0
            }
        ],
        [
            {
                "weights": [
                    -0.600817120453265,
                    -0.28442678074053396,
                    -0.301138065842112,
                    0.35553055767353997,
                    -0.12032577237640507
                ],
                "bias": -0.16764525071054948,
                "activation": 0.4826247788122604,
                "error": -0.5173752211877396
            },
            {
                "weights": [
                    -0.7052140475930044,
                    0.3371364974735368,
                    -0.46791893352398317,
                    0.3514662183273721,
                    0.09284649150164481
                ],
                "bias": -0.09811636940539759,
                "activation": 0.5173752211877396,
                "error": 0.5173752211877396
            }
        ]
    ],
    [
        [
            {
                "weights": null,
                "bias": null,
                "activation": 0,
                "error": null
            },
            {
                "weights": null,
                "bias": null,
                "activation": 0,
                "error": null
            },
            {
                "weights": null,
                "bias": null,
                "activation": 1,
                "error": null
            },
            {
                "weights": null,
                "bias": null,
                "activation": 0,
                "error": null
            },
            {
                "weights": null,
                "bias": null,
                "activation": 0,
                "error": null
            },
            {
                "weights": null,
                "bias": null,
                "activation": 1,
                "error": null
            },
            {
                "weights": null,
                "bias": null,
                "activation": 0,
                "error": null
            },
            {
                "weights": null,
                "bias": null,
                "activation": 0,
                "error": null
            },
            {
                "weights": null,
                "bias": null,
                "activation": 1,
                "error": null
            }
        ],
        [
            {
                "weights": [
                    0.10555279585032559,
                    -0.0887685780665384,
                    0.6629824308169441,
                    0.2154040572825434,
                    0.058509934014942026,
                    0.6075671838167084,
                    20.12201773619355,
                    19.429599430637143,
                    20.14346561817502
                ],
                "bias": 0.3621221103600253,
                "activation": 21.7761373431687,
                "error": 60.057204895365736
            },
            {
                "weights": [
                    -0.43591715218111593,
                    -0.3928829370892537,
                    -0.22772896895495842,
                    0.11913579288009324,
                    -0.11570636907223342,
                    -0.12917700384116126,
                    -0.07071128672577465,
                    -0.48151531640920286,
                    -0.4091170692601068
                ],
                "bias": -0.14532893185646967,
                "activation": 0,
                "error": 0.0
            },
            {
                "weights": [
                    -0.3812280389346035,
                    -0.152451746795714,
                    0.24908720805652396,
                    -0.46695469640161524,
                    -0.46083487612897533,
                    0.04622316964552765,
                    -0.44315513674912504,
                    0.45132190456931204,
                    -0.2813449422014498
                ],
                "bias": 0.28786182388299486,
                "activation": 0.30182725938359667,
                "error": 0.014683649501732066
            },
            {
                "weights": [
                    -0.3056919839555806,
                    -0.024679751128532885,
                    0.37341667277583107,
                    -0.44017451108441474,
                    0.09302527301329411,
                    -0.09696516997697426,
                    -0.012571018654755286,
                    0.17337524195375661,
                    0.5000567901254984
                ],
                "bias": 0.20656378732131264,
                "activation": 0.9830720802456678,
                "error": 0.8674248007458124
            },
            {
                "weights": [
                    0.2656335480335481,
                    0.13263622507040418,
                    -0.43776733329157846,
                    -0.29262160140894056,
                    -0.1224094527969547,
                    -0.20590879762266345,
                    0.5619672687541826,
                    0.18024614992976168,
                    -0.007516943989061909
                ],
                "bias": -0.11579241195234857,
                "activation": 0,
                "error": 0.6189040627425337
            }
        ],
        [
            {
                "weights": [
                    -0.013828792302145617,
                    -0.3446724500220911,
                    0.1372030819661993,
                    -0.1859449373651612,
                    -0.10661288618755203
                ],
                "bias": 0.381338528598696,
                "activation": 0,
                "error": 0.0
            },
            {
                "weights": [
                    -0.02632155198079944,
                    -0.28164792712141207,
                    0.1583660765849766,
                    0.22981307233224424,
                    -0.27935332138430247
                ],
                "bias": -0.3304193822873692,
                "activation": 0,
                "error": 0.0
            },
            {
                "weights": [
                    -0.005976858283248746,
                    0.4135385391974197,
                    0.07203060954984575,
                    -0.4848584154974631,
                    -0.3743982988275651
                ],
                "bias": 0.32058977206128136,
                "activation": 0,
                "error": 0.0
            },
            {
                "weights": [
                    -0.18496490747714686,
                    -0.3305431830359178,
                    0.4675477187103618,
                    0.2761315013018081,
                    -0.19934499679250217
                ],
                "bias": 0.08796578599397065,
                "activation": 0,
                "error": 0.0
            },
            {
                "weights": [
                    -0.3631272822731343,
                    0.34432758782864537,
                    -0.19391269969689306,
                    0.31064293976575197,
                    -0.41448094669313607
                ],
                "bias": 0.0037726689231287747,
                "activation": 0,
                "error": 0.0
            }
        ],
        [
            {
                "weights": [
                    -0.600817120453265,
                    -0.28442678074053396,
                    -0.301138065842112,
                    0.35553055767353997,
                    -0.12032577237640507
                ],
                "bias": -0.16764525071054948,
                "activation": 0.4826247788122604,
                "error": -0.5173752211877396
            },
            {
                "weights": [
                    -0.7052140475930044,
                    0.3371364974735368,
                    -0.46791893352398317,
                    0.3514662183273721,
                    0.09284649150164481
                ],
                "bias": -0.09811636940539759,
                "activation": 0.5173752211877396,
                "error": 0.5173752211877396
            }
        ]
    ],
    [
        [
            {
                "weights": null,
                "bias": null,
                "activation": 0,
                "error": null
            },
            {
                "weights": null,
                "bias": null,
                "activation": 0,
                "error": null
            },
            {
                "weights": null,
                "bias": null,
                "activation": 1,
                "error": null
            },
            {
                "weights": null,
                "bias": null,
                "activation": 0,
                "error": null
            },
            {
                "weights": null,
                "bias": null,
                "activation": 0,
                "error": null
            },
            {
                "weights": null,
                "bias": null,
                "activation": 1,
                "error": null
            },
            {
                "weights": null,
                "bias": null,
                "activation": 0,
                "error": null
            },
            {
                "weights": null,
                "bias": null,
                "activation": 0,
                "error": null
            },
            {
                "weights": null,
                "bias": null,
                "activation": 1,
                "error": null
            }
        ],
        [
            {
                "weights": [
                    0.10555279585032559,
                    -0.0887685780665384,
                    0.6629824308169441,
                    0.2154040572825434,
                    0.058509934014942026,
                    0.6075671838167084,
                    20.12201773619355,
                    19.429599430637143,
                    20.14346561817502
                ],
                "bias": 0.3621221103600253,
                "activation": 21.7761373431687,
                "error": 60.057204895365736
            },
            {
                "weights": [
                    -0.43591715218111593,
                    -0.3928829370892537,
                    -0.22772896895495842,
                    0.11913579288009324,
                    -0.11570636907223342,
                    -0.12917700384116126,
                    -0.07071128672577465,
                    -0.48151531640920286,
                    -0.4091170692601068
                ],
                "bias": -0.14532893185646967,
                "activation": 0,
                "error": 0.0
            },
            {
                "weights": [
                    -0.3812280389346035,
                    -0.152451746795714,
                    0.24908720805652396,
                    -0.46695469640161524,
                    -0.46083487612897533,
                    0.04622316964552765,
                    -0.44315513674912504,
                    0.45132190456931204,
                    -0.2813449422014498
                ],
                "bias": 0.28786182388299486,
                "activation": 0.30182725938359667,
                "error": 0.014683649501732066
            },
            {
                "weights": [
                    -0.3056919839555806,
                    -0.024679751128532885,
                    0.37341667277583107,
                    -0.44017451108441474,
                    0.09302527301329411,
                    -0.09696516997697426,
                    -0.012571018654755286,
                    0.17337524195375661,
                    0.5000567901254984
                ],
                "bias": 0.20656378732131264,
                "activation": 0.9830720802456678,
                "error": 0.8674248007458124
            },
            {
                "weights": [
                    0.2656335480335481,
                    0.13263622507040418,
                    -0.43776733329157846,
                    -0.29262160140894056,
                    -0.1224094527969547,
                    -0.20590879762266345,
                    0.5619672687541826,
                    0.18024614992976168,
                    -0.007516943989061909
                ],
                "bias": -0.11579241195234857,
                "activation": 0,
                "error": 0.6189040627425337
            }
        ],
        [
            {
                "weights": [
                    -0.013828792302145617,
                    -0.3446724500220911,
                    0.1372030819661993,
                    -0.1859449373651612,
                    -0.10661288618755203
                ],
                "bias": 0.381338528598696,
                "activation": 0,
                "error": 0.0
            },
            {
                "weights": [
                    -0.02632155198079944,
                    -0.28164792712141207,
                    0.1583660765849766,
                    0.22981307233224424,
                    -0.27935332138430247
                ],
                "bias": -0.3304193822873692,
                "activation": 0,
                "error": 0.0
            },
            {
                "weights": [
                    -0.005976858283248746,
                    0.4135385391974197,
                    0.07203060954984575,
                    -0.4848584154974631,
                    -0.3743982988275651
                ],
                "bias": 0.32058977206128136,
                "activation": 0,
                "error": 0.0
            },
            {
                "weights": [
                    -0.18496490747714686,
                    -0.3305431830359178,
                    0.4675477187103618,
                    0.2761315013018081,
                    -0.19934499679250217
                ],
                "bias": 0.08796578599397065,
                "activation": 0,
                "error": 0.0
            },
            {
                "weights": [
                    -0.3631272822731343,
                    0.34432758782864537,
                    -0.19391269969689306,
                    0.31064293976575197,
                    -0.41448094669313607
                ],
                "bias": 0.0037726689231287747,
                "activation": 0,
                "error": 0.0
            }
        ],
        [
            {
                "weights": [
                    -0.600817120453265,
                    -0.28442678074053396,
                    -0.301138065842112,
                    0.35553055767353997,
                    -0.12032577237640507
                ],
                "bias": -0.16764525071054948,
                "activation": 0.4826247788122604,
                "error": -0.5173752211877396
            },
            {
                "weights": [
                    -0.7052140475930044,
                    0.3371364974735368,
                    -0.46791893352398317,
                    0.3514662183273721,
                    0.09284649150164481
                ],
                "bias": -0.09811636940539759,
                "activation": 0.5173752211877396,
                "error": 0.5173752211877396
            }
        ]
    ],
    [
        [
            {
                "weights": null,
                "bias": null,
                "activation": 0,
                "error": null
            },
            {
                "weights": null,
                "bias": null,
                "activation": 0,
                "error": null
            },
            {
                "weights": null,
                "bias": null,
                "activation": 1,
                "error": null
            },
            {
                "weights": null,
                "bias": null,
                "activation": 0,
                "error": null
            },
            {
                "weights": null,
                "bias": null,
                "activation": 0,
                "error": null
            },
            {
                "weights": null,
                "bias": null,
                "activation": 1,
                "error": null
            },
            {
                "weights": null,
                "bias": null,
                "activation": 0,
                "error": null
            },
            {
                "weights": null,
                "bias": null,
                "activation": 0,
                "error": null
            },
            {
                "weights": null,
                "bias": null,
                "activation": 1,
                "error": null
            }
        ],
        [
            {
                "weights": [
                    0.10555279585032559,
                    -0.0887685780665384,
                    0.6629824308169441,
                    0.2154040572825434,
                    0.058509934014942026,
                    0.6075671838167084,
                    20.12201773619355,
                    19.429599430637143,
                    20.14346561817502
                ],
                "bias": 0.3621221103600253,
                "activation": 21.7761373431687,
                "error": 60.057204895365736
            },
            {
                "weights": [
                    -0.43591715218111593,
                    -0.3928829370892537,
                    -0.22772896895495842,
                    0.11913579288009324,
                    -0.11570636907223342,
                    -0.12917700384116126,
                    -0.07071128672577465,
                    -0.48151531640920286,
                    -0.4091170692601068
                ],
                "bias": -0.14532893185646967,
                "activation": 0,
                "error": 0.0
            },
            {
                "weights": [
                    -0.3812280389346035,
                    -0.152451746795714,
                    0.24908720805652396,
                    -0.46695469640161524,
                    -0.46083487612897533,
                    0.04622316964552765,
                    -0.44315513674912504,
                    0.45132190456931204,
                    -0.2813449422014498
                ],
                "bias": 0.28786182388299486,
                "activation": 0.30182725938359667,
                "error": 0.014683649501732066
            },
            {
                "weights": [
                    -0.3056919839555806,
                    -0.024679751128532885,
                    0.37341667277583107,
                    -0.44017451108441474,
                    0.09302527301329411,
                    -0.09696516997697426,
                    -0.012571018654755286,
                    0.17337524195375661,
                    0.5000567901254984
                ],
                "bias": 0.20656378732131264,
                "activation": 0.9830720802456678,
                "error": 0.8674248007458124
            },
            {
                "weights": [
                    0.2656335480335481,
                    0.13263622507040418,
                    -0.43776733329157846,
                    -0.29262160140894056,
                    -0.1224094527969547,
                    -0.20590879762266345,
                    0.5619672687541826,
                    0.18024614992976168,
                    -0.007516943989061909
                ],
                "bias": -0.11579241195234857,
                "activation": 0,
                "error": 0.6189040627425337
            }
        ],
        [
            {
                "weights": [
                    -0.013828792302145617,
                    -0.3446724500220911,
                    0.1372030819661993,
                    -0.1859449373651612,
                    -0.10661288618755203
                ],
                "bias": 0.381338528598696,
                "activation": 0,
                "error": 0.0
            },
            {
                "weights": [
                    -0.02632155198079944,
                    -0.28164792712141207,
                    0.1583660765849766,
                    0.22981307233224424,
                    -0.27935332138430247
                ],
                "bias": -0.3304193822873692,
                "activation": 0,
                "error": 0.0
            },
            {
                "weights": [
                    -0.005976858283248746,
                    0.4135385391974197,
                    0.07203060954984575,
                    -0.4848584154974631,
                    -0.3743982988275651
                ],
                "bias": 0.32058977206128136,
                "activation": 0,
                "error": 0.0
            },
            {
                "weights": [
                    -0.18496490747714686,
                    -0.3305431830359178,
                    0.4675477187103618,
                    0.2761315013018081,
                    -0.19934499679250217
                ],
                "bias": 0.08796578599397065,
                "activation": 0,
                "error": 0.0
            },
            {
                "weights": [
                    -0.3631272822731343,
                    0.34432758782864537,
                    -0.19391269969689306,
                    0.31064293976575197,
                    -0.41448094669313607
                ],
                "bias": 0.0037726689231287747,
                "activation": 0,
                "error": 0.0
            }
        ],
        [
            {
                "weights": [
                    -0.600817120453265,
                    -0.28442678074053396,
                    -0.301138065842112,
                    0.35553055767353997,
                    -0.12032577237640507
                ],
                "bias": -0.16764525071054948,
                "activation": 0.4826247788122604,
                "error": -0.5173752211877396
            },
            {
                "weights": [
                    -0.7052140475930044,
                    0.3371364974735368,
                    -0.46791893352398317,
                    0.3514662183273721,
