[
    [
        {
            "weights": null,
            "bias": null,
            "activation": 0,
            "error": null
        },
        {
            "weights": null,
            "bias": null,
            "activation": 0,
            "error": null
        },
        {
            "weights": null,
            "bias": null,
            "activation": 0,
            "error": null
        },
        {
            "weights": null,
            "bias": null,
            "activation": 0,
            "error": null
        },
        {
            "weights": null,
            "bias": null,
            "activation": 0,
            "error": null
        },
        {
            "weights": null,
            "bias": null,
            "activation": 0,
            "error": null
        },
        {
            "weights": null,
            "bias": null,
            "activation": 1,
            "error": null
        },
        {
            "weights": null,
            "bias": null,
            "activation": 1,
            "error": null
        },
        {
            "weights": null,
            "bias": null,
            "activation": 1,
            "error": null
        }
    ],
    [
        {
            "weights": [
                0.25392780033194196,
                0.5203505151114635,
                0.1304486512694025,
                0.6687569184309982,
                0.015538885103304562,
                0.06190403922918014,
                0.0967807528144079,
                0.08465165464255758,
                0.527993989753636
            ],
            "bias": 0.07578826303342967,
            "activation": 0.7852146602440311,
            "error": -1.001340367006371
        },
        {
            "weights": [
                0.5506015659292492,
                -0.03418311680019619,
                -0.18109396550786058,
                0.4068785103074167,
                0.5344109771305448,
                0.5103011284725951,
                -0.0534012456326064,
                0.1585979014345474,
                -0.3762275810049473
            ],
            "bias": 0.08271714266347074,
            "activation": 0,
            "error": -1.6910789827708164
        },
        {
            "weights": [
                0.6549348642872045,
                0.277040112941359,
                0.17846113494312812,
                0.051299974711819775,
                0.5859783569762061,
                0.6026184503684725,
                -0.19845229633001885,
                -0.13987213769605292,
                0.31029112812189863
            ],
            "bias": 0.27407789639057756,
            "activation": 0.24604459048640442,
            "error": -1.6981604675589415
        },
        {
            "weights": [
                -0.14190564302796485,
                0.17175563680894276,
                -0.026142664591537013,
                0.04721787213173825,
                -0.018097655068690436,
                0.2066612701564504,
                -0.1982840838052701,
                -0.5429793613043407,
                0.011267095912593362
            ],
            "bias": -0.003076327058190609,
            "activation": 0,
            "error": 0.11123964604414416
        },
        {
            "weights": [
                0.31620095230720136,
                -0.2591679877909079,
                -0.44801628957531925,
                0.49225883516022706,
                -0.39845568488025573,
                0.3142333740709079,
                0.004687948333495253,
                0.23512143866584453,
                0.18495246917120997
            ],
            "bias": 0.18841200241194112,
            "activation": 0.6131738585824908,
            "error": -0.7253698816597228
        }
    ],
    [
        {
            "weights": [
                -0.21042851060733633,
                -0.5240631698584683,
                0.3572730173611992,
                0.28359876382520877,
                -0.24778755577006426
            ],
            "bias": 0.0812494475417136,
            "activation": 0,
            "error": 0.0
        },
        {
            "weights": [
                -0.02236311585640871,
                -0.0554680681341827,
                -0.17403008027279476,
                -0.11538322232528297,
                0.28210339224094294
            ],
            "bias": -0.4793443014818022,
            "activation": 0,
            "error": 0.0
        },
        {
            "weights": [
                0.2842675668796625,
                0.23841582621479007,
                0.28074166763202335,
                -0.5438504074260381,
                0.20447760978696605
            ],
            "bias": 0.0783308328946547,
            "activation": 0.4959971874722566,
            "error": -0.6332171808109098
        },
        {
            "weights": [
                0.2220688177857444,
                -0.28335110735038704,
                0.05717668023566236,
                -0.23834318344152516,
                0.06282630698371094
            ],
            "bias": -0.2769843225766738,
            "activation": 0,
            "error": 0.0
        },
        {
            "weights": [
                -0.17805653274444666,
                0.020564015508575006,
                -0.02812038883893342,
                -0.38248180241502294,
                -0.426849719663675
            ],
            "bias": -0.30973032249396726,
            "activation": 0,
            "error": 0.0
        }
    ],
    [
        {
            "weights": [
                -2.1887213210969714,
                -2.2657185834766764,
                -2.0265238422019722,
                -2.466781808106327,
                -2.0474084403074824
            ],
            "bias": -0.4631519250625452,
            "activation": 0.4713008607758702,
            "error": 0.3154972450910769
        },
        {
            "weights": [
                -3.216343498831859,
                -3.5729773870028043,
                -3.500623613037954,
                -3.461062850053657,
                -3.4623109353409873
            ],
            "bias": 0.38292029015248097,
            "activation": 0.5286991392241298,
            "error": -0.3154972450910769
        }
    ]
]