[
    [
        [
            {
                "weights": null,
                "bias": null,
                "activation": 1,
                "error": null
            },
            {
                "weights": null,
                "bias": null,
                "activation": 1,
                "error": null
            },
            {
                "weights": null,
                "bias": null,
                "activation": 1,
                "error": null
            },
            {
                "weights": null,
                "bias": null,
                "activation": 0,
                "error": null
            },
            {
                "weights": null,
                "bias": null,
                "activation": 0,
                "error": null
            },
            {
                "weights": null,
                "bias": null,
                "activation": 0,
                "error": null
            },
            {
                "weights": null,
                "bias": null,
                "activation": 0,
                "error": null
            },
            {
                "weights": null,
                "bias": null,
                "activation": 0,
                "error": null
            },
            {
                "weights": null,
                "bias": null,
                "activation": 0,
                "error": null
            }
        ],
        [
            {
                "weights": [
                    0.008942672900821957,
                    -0.24678093799354306,
                    0.21147429300394982,
                    0.0430619661236582,
                    -0.08043059297836563,
                    -0.25016526917910387,
                    -0.48823751636925417,
                    -0.23470386112810926,
                    0.11294462974990527
                ],
                "bias": -0.4912052394957691,
                "activation": 0,
                "error": 0.0
            },
            {
                "weights": [
                    0.22255622339115422,
                    -0.15882623330118295,
                    -0.25803916343120936,
                    -0.45127317093606534,
                    0.3958468237988314,
                    -0.40207443722525227,
                    -0.42577198136466,
                    -0.11052883060965069,
                    0.0708608498285701
                ],
                "bias": -0.41062466079310433,
                "activation": 0,
                "error": 0.0
            },
            {
                "weights": [
                    0.2807174956393765,
                    0.32795717269248986,
                    0.4393495687429478,
                    -0.3049982149935166,
                    0.4487598155695309,
                    -0.43027066820564547,
                    -0.1605852001221861,
                    0.02398645154270012,
                    0.2527312241827809
                ],
                "bias": -0.1275044666895323,
                "activation": 0.9205504597552644,
                "error": 0.9053561795437125
            },
            {
                "weights": [
                    0.4260134190856694,
                    0.4161349829985242,
                    0.29228177477392187,
                    -0.27879435049141127,
                    -0.19125746258118065,
                    0.21778327109299372,
                    0.4947181194233888,
                    -0.3582825183543475,
                    0.06755355529816776
                ],
                "bias": -0.4606010805345323,
                "activation": 0.6736367528929924,
                "error": 0.7169283202958172
            },
            {
                "weights": [
                    -0.2109355330809336,
                    -0.15272330226705055,
                    -0.3389748685132806,
                    -0.23331849692572237,
                    0.035385656151388334,
                    0.22439436193635232,
                    -0.28436523135497727,
                    -0.45987326435906883,
                    -0.30258075646198446
                ],
                "bias": -0.18119955926650577,
                "activation": 0,
                "error": 0.0
            }
        ],
        [
            {
                "weights": [
                    0.4642233458509585,
                    0.2837827144974543,
                    -0.17509792070960684,
                    -0.23108495849803512,
                    0.04031682621248367
                ],
                "bias": -0.35323541734825525,
                "activation": 0,
                "error": 0.0
            },
            {
                "weights": [
                    0.1206313233942393,
                    0.268093858158425,
                    0.3800038423059301,
                    -0.3468530355811107,
                    0.16076793038222126
                ],
                "bias": -0.22765230642987622,
                "activation": 0,
                "error": 0.0
            },
            {
                "weights": [
                    -0.12440926635346938,
                    0.3755188784361436,
                    -0.23105762012821363,
                    0.2249351604969596,
                    0.11361236672775954
                ],
                "bias": -0.2179569452938278,
                "activation": 0,
                "error": 0.0
            },
            {
                "weights": [
                    -0.03207162717784912,
                    0.1130273420582949,
                    -0.26446540625443876,
                    0.1313409727438465,
                    -0.0777399302994165
                ],
                "bias": 0.16607201316329356,
                "activation": 0.011094319702478317,
                "error": 0.036112059454922296
            },
            {
                "weights": [
                    -0.18852705987326474,
                    0.10646500847375448,
                    0.24621384503486005,
                    -0.4779523625717105,
                    0.08516994205308034
                ],
                "bias": 0.16424385255270813,
                "activation": 0.06892761671695127,
                "error": 0.10050072806620139
            }
        ],
        [
            {
                "weights": [
                    -0.8774841211166157,
                    -0.4851348801155856,
                    -0.2376282608992196,
                    -0.7948766233958485,
                    -0.8817060084221934
                ],
                "bias": -0.4840719941059005,
                "activation": 0.3850751102202772,
                "error": -0.6149248897797228
            },
            {
                "weights": [
                    -0.8987944796998674,
                    -0.47725200794722167,
                    -0.41940398624370767,
                    -0.8355608438075574,
                    -0.933050671606278
                ],
                "bias": -0.011946875676305924,
                "activation": 0.6149248897797228,
                "error": 0.6149248897797228
            }
        ]
    ],
    [
        [
            {
                "weights": null,
                "bias": null,
                "activation": 1,
                "error": null
            },
            {
                "weights": null,
                "bias": null,
                "activation": 1,
                "error": null
            },
            {
                "weights": null,
                "bias": null,
                "activation": 1,
                "error": null
            },
            {
                "weights": null,
                "bias": null,
                "activation": 0,
                "error": null
            },
            {
                "weights": null,
                "bias": null,
                "activation": 0,
                "error": null
            },
            {
                "weights": null,
                "bias": null,
                "activation": 0,
                "error": null
            },
            {
                "weights": null,
                "bias": null,
                "activation": 0,
                "error": null
            },
            {
                "weights": null,
                "bias": null,
                "activation": 0,
                "error": null
            },
            {
                "weights": null,
                "bias": null,
                "activation": 0,
                "error": null
            }
        ],
        [
            {
                "weights": [
                    0.008942672900821957,
                    -0.24678093799354306,
                    0.21147429300394982,
                    0.0430619661236582,
                    -0.08043059297836563,
                    -0.25016526917910387,
                    -0.48823751636925417,
                    -0.23470386112810926,
                    0.11294462974990527
                ],
                "bias": -0.4912052394957691,
                "activation": 0,
                "error": 0.0
            },
            {
                "weights": [
                    0.22255622339115422,
                    -0.15882623330118295,
                    -0.25803916343120936,
                    -0.45127317093606534,
                    0.3958468237988314,
                    -0.40207443722525227,
                    -0.42577198136466,
                    -0.11052883060965069,
                    0.0708608498285701
                ],
                "bias": -0.41062466079310433,
                "activation": 0,
                "error": 0.0
            },
            {
                "weights": [
                    0.2807174956393765,
                    0.32795717269248986,
                    0.4393495687429478,
                    -0.3049982149935166,
                    0.4487598155695309,
                    -0.43027066820564547,
                    -0.1605852001221861,
                    0.02398645154270012,
                    0.2527312241827809
                ],
                "bias": -0.1275044666895323,
                "activation": 0.9205504597552644,
                "error": 0.9053561795437125
            },
            {
                "weights": [
                    0.4260134190856694,
                    0.4161349829985242,
                    0.29228177477392187,
                    -0.27879435049141127,
                    -0.19125746258118065,
                    0.21778327109299372,
                    0.4947181194233888,
                    -0.3582825183543475,
                    0.06755355529816776
                ],
                "bias": -0.4606010805345323,
                "activation": 0.6736367528929924,
                "error": 0.7169283202958172
            },
            {
                "weights": [
                    -0.2109355330809336,
                    -0.15272330226705055,
                    -0.3389748685132806,
                    -0.23331849692572237,
                    0.035385656151388334,
                    0.22439436193635232,
                    -0.28436523135497727,
                    -0.45987326435906883,
                    -0.30258075646198446
                ],
                "bias": -0.18119955926650577,
                "activation": 0,
                "error": 0.0
            }
        ],
        [
            {
                "weights": [
                    0.4642233458509585,
                    0.2837827144974543,
                    -0.17509792070960684,
                    -0.23108495849803512,
                    0.04031682621248367
                ],
                "bias": -0.35323541734825525,
                "activation": 0,
                "error": 0.0
            },
            {
                "weights": [
                    0.1206313233942393,
                    0.268093858158425,
                    0.3800038423059301,
                    -0.3468530355811107,
                    0.16076793038222126
                ],
                "bias": -0.22765230642987622,
                "activation": 0,
                "error": 0.0
            },
            {
                "weights": [
                    -0.12440926635346938,
                    0.3755188784361436,
                    -0.23105762012821363,
                    0.2249351604969596,
                    0.11361236672775954
                ],
                "bias": -0.2179569452938278,
                "activation": 0,
                "error": 0.0
            },
            {
                "weights": [
                    -0.03207162717784912,
                    0.1130273420582949,
                    -0.26446540625443876,
                    0.1313409727438465,
                    -0.0777399302994165
                ],
                "bias": 0.16607201316329356,
                "activation": 0.011094319702478317,
                "error": 0.036112059454922296
            },
            {
                "weights": [
                    -0.18852705987326474,
                    0.10646500847375448,
                    0.24621384503486005,
                    -0.4779523625717105,
                    0.08516994205308034
                ],
                "bias": 0.16424385255270813,
                "activation": 0.06892761671695127,
                "error": 0.10050072806620139
            }
        ],
        [
            {
                "weights": [
                    -0.8774841211166157,
                    -0.4851348801155856,
                    -0.2376282608992196,
                    -0.7948766233958485,
                    -0.8817060084221934
                ],
                "bias": -0.4840719941059005,
                "activation": 0.3850751102202772,
                "error": -0.6149248897797228
            },
            {
                "weights": [
                    -0.8987944796998674,
                    -0.47725200794722167,
                    -0.41940398624370767,
                    -0.8355608438075574,
                    -0.933050671606278
                ],
                "bias": -0.011946875676305924,
                "activation": 0.6149248897797228,
                "error": 0.6149248897797228
            }
        ]
    ],
    [
        [
            {
                "weights": null,
                "bias": null,
                "activation": 1,
                "error": null
            },
            {
                "weights": null,
                "bias": null,
                "activation": 1,
                "error": null
            },
            {
                "weights": null,
                "bias": null,
                "activation": 1,
                "error": null
            },
            {
                "weights": null,
                "bias": null,
                "activation": 0,
                "error": null
            },
            {
                "weights": null,
                "bias": null,
                "activation": 0,
                "error": null
            },
            {
                "weights": null,
                "bias": null,
                "activation": 0,
                "error": null
            },
            {
                "weights": null,
                "bias": null,
                "activation": 0,
                "error": null
            },
            {
                "weights": null,
                "bias": null,
                "activation": 0,
                "error": null
            },
            {
                "weights": null,
                "bias": null,
                "activation": 0,
                "error": null
            }
        ],
        [
            {
                "weights": [
                    0.008942672900821957,
                    -0.24678093799354306,
                    0.21147429300394982,
                    0.0430619661236582,
                    -0.08043059297836563,
                    -0.25016526917910387,
                    -0.48823751636925417,
                    -0.23470386112810926,
                    0.11294462974990527
                ],
                "bias": -0.4912052394957691,
                "activation": 0,
                "error": 0.0
            },
            {
                "weights": [
                    0.22255622339115422,
                    -0.15882623330118295,
                    -0.25803916343120936,
                    -0.45127317093606534,
                    0.3958468237988314,
                    -0.40207443722525227,
                    -0.42577198136466,
                    -0.11052883060965069,
                    0.0708608498285701
                ],
                "bias": -0.41062466079310433,
                "activation": 0,
                "error": 0.0
            },
            {
                "weights": [
                    0.2807174956393765,
                    0.32795717269248986,
                    0.4393495687429478,
                    -0.3049982149935166,
                    0.4487598155695309,
                    -0.43027066820564547,
                    -0.1605852001221861,
                    0.02398645154270012,
                    0.2527312241827809
                ],
                "bias": -0.1275044666895323,
                "activation": 0.9205504597552644,
                "error": 0.9053561795437125
            },
            {
                "weights": [
                    0.4260134190856694,
                    0.4161349829985242,
                    0.29228177477392187,
                    -0.27879435049141127,
                    -0.19125746258118065,
                    0.21778327109299372,
                    0.4947181194233888,
                    -0.3582825183543475,
                    0.06755355529816776
                ],
                "bias": -0.4606010805345323,
                "activation": 0.6736367528929924,
                "error": 0.7169283202958172
            },
            {
                "weights": [
                    -0.2109355330809336,
                    -0.15272330226705055,
                    -0.3389748685132806,
                    -0.23331849692572237,
                    0.035385656151388334,
                    0.22439436193635232,
                    -0.28436523135497727,
                    -0.45987326435906883,
                    -0.30258075646198446
                ],
                "bias": -0.18119955926650577,
                "activation": 0,
                "error": 0.0
            }
        ],
        [
            {
                "weights": [
                    0.4642233458509585,
                    0.2837827144974543,
                    -0.17509792070960684,
                    -0.23108495849803512,
                    0.04031682621248367
                ],
                "bias": -0.35323541734825525,
                "activation": 0,
                "error": 0.0
            },
            {
                "weights": [
                    0.1206313233942393,
                    0.268093858158425,
                    0.3800038423059301,
                    -0.3468530355811107,
                    0.16076793038222126
                ],
                "bias": -0.22765230642987622,
                "activation": 0,
                "error": 0.0
            },
            {
                "weights": [
                    -0.12440926635346938,
                    0.3755188784361436,
                    -0.23105762012821363,
                    0.2249351604969596,
                    0.11361236672775954
                ],
                "bias": -0.2179569452938278,
                "activation": 0,
                "error": 0.0
            },
            {
                "weights": [
                    -0.03207162717784912,
                    0.1130273420582949,
                    -0.26446540625443876,
                    0.1313409727438465,
                    -0.0777399302994165
                ],
                "bias": 0.16607201316329356,
                "activation": 0.011094319702478317,
                "error": 0.036112059454922296
            },
            {
                "weights": [
                    -0.18852705987326474,
                    0.10646500847375448,
                    0.24621384503486005,
                    -0.4779523625717105,
                    0.08516994205308034
                ],
                "bias": 0.16424385255270813,
                "activation": 0.06892761671695127,
                "error": 0.10050072806620139
            }
        ],
        [
            {
                "weights": [
                    -0.8774841211166157,
                    -0.4851348801155856,
                    -0.2376282608992196,
                    -0.7948766233958485,
                    -0.8817060084221934
                ],
                "bias": -0.4840719941059005,
                "activation": 0.3850751102202772,
                "error": -0.6149248897797228
            },
            {
                "weights": [
                    -0.8987944796998674,
                    -0.47725200794722167,
                    -0.41940398624370767,
                    -0.8355608438075574,
                    -0.933050671606278
                ],
                "bias": -0.011946875676305924,
                "activation": 0.6149248897797228,
                "error": 0.6149248897797228
            }
        ]
    ],
    [
        [
            {
                "weights": null,
                "bias": null,
                "activation": 1,
                "error": null
            },
            {
                "weights": null,
                "bias": null,
                "activation": 1,
                "error": null
            },
            {
                "weights": null,
                "bias": null,
                "activation": 1,
                "error": null
            },
            {
                "weights": null,
                "bias": null,
                "activation": 0,
                "error": null
            },
            {
                "weights": null,
                "bias": null,
                "activation": 0,
                "error": null
            },
            {
                "weights": null,
                "bias": null,
                "activation": 0,
                "error": null
            },
            {
                "weights": null,
                "bias": null,
                "activation": 0,
                "error": null
            },
            {
                "weights": null,
                "bias": null,
                "activation": 0,
                "error": null
            },
            {
                "weights": null,
                "bias": null,
                "activation": 0,
                "error": null
            }
        ],
        [
            {
                "weights": [
                    0.008942672900821957,
                    -0.24678093799354306,
                    0.21147429300394982,
                    0.0430619661236582,
                    -0.08043059297836563,
                    -0.25016526917910387,
                    -0.48823751636925417,
                    -0.23470386112810926,
                    0.11294462974990527
                ],
                "bias": -0.4912052394957691,
                "activation": 0,
                "error": 0.0
            },
            {
                "weights": [
                    0.22255622339115422,
                    -0.15882623330118295,
                    -0.25803916343120936,
                    -0.45127317093606534,
                    0.3958468237988314,
                    -0.40207443722525227,
                    -0.42577198136466,
                    -0.11052883060965069,
                    0.0708608498285701
                ],
                "bias": -0.41062466079310433,
                "activation": 0,
                "error": 0.0
            },
            {
                "weights": [
                    0.2807174956393765,
                    0.32795717269248986,
                    0.4393495687429478,
                    -0.3049982149935166,
                    0.4487598155695309,
                    -0.43027066820564547,
                    -0.1605852001221861,
                    0.02398645154270012,
                    0.2527312241827809
                ],
                "bias": -0.1275044666895323,
                "activation": 0.9205504597552644,
                "error": 0.9053561795437125
            },
            {
                "weights": [
                    0.4260134190856694,
                    0.4161349829985242,
                    0.29228177477392187,
                    -0.27879435049141127,
                    -0.19125746258118065,
                    0.21778327109299372,
                    0.4947181194233888,
                    -0.3582825183543475,
                    0.06755355529816776
                ],
                "bias": -0.4606010805345323,
                "activation": 0.6736367528929924,
                "error": 0.7169283202958172
            },
            {
                "weights": [
                    -0.2109355330809336,
                    -0.15272330226705055,
                    -0.3389748685132806,
                    -0.23331849692572237,
                    0.035385656151388334,
                    0.22439436193635232,
                    -0.28436523135497727,
                    -0.45987326435906883,
                    -0.30258075646198446
                ],
                "bias": -0.18119955926650577,
                "activation": 0,
                "error": 0.0
            }
        ],
        [
            {
                "weights": [
                    0.4642233458509585,
                    0.2837827144974543,
                    -0.17509792070960684,
                    -0.23108495849803512,
                    0.04031682621248367
                ],
                "bias": -0.35323541734825525,
                "activation": 0,
                "error": 0.0
            },
            {
                "weights": [
                    0.1206313233942393,
                    0.268093858158425,
                    0.3800038423059301,
                    -0.3468530355811107,
                    0.16076793038222126
                ],
                "bias": -0.22765230642987622,
                "activation": 0,
                "error": 0.0
            },
            {
                "weights": [
                    -0.12440926635346938,
                    0.3755188784361436,
                    -0.23105762012821363,
                    0.2249351604969596,
                    0.11361236672775954
                ],
                "bias": -0.2179569452938278,
                "activation": 0,
                "error": 0.0
            },
            {
                "weights": [
                    -0.03207162717784912,
                    0.1130273420582949,
                    -0.26446540625443876,
                    0.1313409727438465,
                    -0.0777399302994165
                ],
                "bias": 0.16607201316329356,
                "activation": 0.011094319702478317,
                "error": 0.036112059454922296
            },
            {
                "weights": [
                    -0.18852705987326474,
                    0.10646500847375448,
                    0.24621384503486005,
                    -0.4779523625717105,
                    0.08516994205308034
                ],
                "bias": 0.16424385255270813,
                "activation": 0.06892761671695127,
                "error": 0.10050072806620139
            }
        ],
        [
            {
                "weights": [
                    -0.8774841211166157,
                    -0.4851348801155856,
                    -0.2376282608992196,
                    -0.7948766233958485,
                    -0.8817060084221934
                ],
                "bias": -0.4840719941059005,
                "activation": 0.3850751102202772,
                "error": -0.6149248897797228
            },
            {
                "weights": [
                    -0.8987944796998674,
                    -0.47725200794722167,
                    -0.41940398624370767,
                    -0.8355608438075574,
                    -0.933050671606278
                ],
                "bias": -0.011946875676305924,
                "activation": 0.6149248897797228,
                "error": 0.6149248897797228
            }
        ]
    ],
    [
        [
            {
                "weights": null,
                "bias": null,
                "activation": 1,
                "error": null
            },
            {
                "weights": null,
                "bias": null,
                "activation": 1,
                "error": null
            },
            {
                "weights": null,
                "bias": null,
                "activation": 1,
                "error": null
            },
            {
                "weights": null,
                "bias": null,
                "activation": 0,
                "error": null
            },
            {
                "weights": null,
                "bias": null,
                "activation": 0,
                "error": null
            },
            {
                "weights": null,
                "bias": null,
                "activation": 0,
                "error": null
            },
            {
                "weights": null,
                "bias": null,
                "activation": 0,
                "error": null
            },
            {
                "weights": null,
                "bias": null,
                "activation": 0,
                "error": null
            },
            {
                "weights": null,
                "bias": null,
                "activation": 0,
                "error": null
            }
        ],
        [
            {
                "weights": [
                    0.008942672900821957,
                    -0.24678093799354306,
                    0.21147429300394982,
                    0.0430619661236582,
                    -0.08043059297836563,
                    -0.25016526917910387,
                    -0.48823751636925417,
                    -0.23470386112810926,
                    0.11294462974990527
                ],
                "bias": -0.4912052394957691,
                "activation": 0,
                "error": 0.0
            },
            {
                "weights": [
                    0.22255622339115422,
                    -0.15882623330118295,
                    -0.25803916343120936,
                    -0.45127317093606534,
                    0.3958468237988314,
                    -0.40207443722525227,
                    -0.42577198136466,
                    -0.11052883060965069,
                    0.0708608498285701
                ],
                "bias": -0.41062466079310433,
                "activation": 0,
                "error": 0.0
            },
            {
                "weights": [
                    0.2807174956393765,
                    0.32795717269248986,
                    0.4393495687429478,
                    -0.3049982149935166,
                    0.4487598155695309,
                    -0.43027066820564547,
                    -0.1605852001221861,
                    0.02398645154270012,
                    0.2527312241827809
                ],
                "bias": -0.1275044666895323,
                "activation": 0.9205504597552644,
                "error": 0.9053561795437125
            },
            {
                "weights": [
                    0.4260134190856694,
                    0.4161349829985242,
                    0.29228177477392187,
                    -0.27879435049141127,
                    -0.19125746258118065,
                    0.21778327109299372,
                    0.4947181194233888,
                    -0.3582825183543475,
                    0.06755355529816776
                ],
                "bias": -0.4606010805345323,
                "activation": 0.6736367528929924,
                "error": 0.7169283202958172
            },
            {
                "weights": [
                    -0.2109355330809336,
                    -0.15272330226705055,
                    -0.3389748685132806,
                    -0.23331849692572237,
                    0.035385656151388334,
                    0.22439436193635232,
                    -0.28436523135497727,
                    -0.45987326435906883,
                    -0.30258075646198446
                ],
                "bias": -0.18119955926650577,
                "activation": 0,
                "error": 0.0
            }
        ],
        [
            {
                "weights": [
                    0.4642233458509585,
                    0.2837827144974543,
                    -0.17509792070960684,
                    -0.23108495849803512,
                    0.04031682621248367
                ],
                "bias": -0.35323541734825525,
                "activation": 0,
                "error": 0.0
            },
            {
                "weights": [
                    0.1206313233942393,
                    0.268093858158425,
                    0.3800038423059301,
                    -0.3468530355811107,
                    0.16076793038222126
                ],
                "bias": -0.22765230642987622,
                "activation": 0,
                "error": 0.0
            },
            {
                "weights": [
                    -0.12440926635346938,
                    0.3755188784361436,
                    -0.23105762012821363,
                    0.2249351604969596,
                    0.11361236672775954
                ],
                "bias": -0.2179569452938278,
                "activation": 0,
                "error": 0.0
            },
            {
                "weights": [
                    -0.03207162717784912,
                    0.1130273420582949,
                    -0.26446540625443876,
                    0.1313409727438465,
                    -0.0777399302994165
                ],
                "bias": 0.16607201316329356,
                "activation": 0.011094319702478317,
                "error": 0.036112059454922296
            },
            {
                "weights": [
                    -0.18852705987326474,
                    0.10646500847375448,
                    0.24621384503486005,
                    -0.4779523625717105,
                    0.08516994205308034
                ],
                "bias": 0.16424385255270813,
                "activation": 0.06892761671695127,
                "error": 0.10050072806620139
            }
        ],
        [
            {
                "weights": [
                    -0.8774841211166157,
                    -0.4851348801155856,
                    -0.2376282608992196,
                    -0.7948766233958485,
                    -0.8817060084221934
                ],
                "bias": -0.4840719941059005,
                "activation": 0.3850751102202772,
                "error": -0.6149248897797228
            },
            {
                "weights": [
                    -0.8987944796998674,
                    -0.47725200794722167,
                    -0.41940398624370767,
                    -0.8355608438075574,
                    -0.933050671606278
                ],
                "bias": -0.011946875676305924,
                "activation": 0.6149248897797228,
                "error": 0.6149248897797228
            }
        ]
    ],
    [
        [
            {
                "weights": null,
                "bias": null,
                "activation": 1,
                "error": null
            },
            {
                "weights": null,
                "bias": null,
                "activation": 1,
                "error": null
            },
            {
                "weights": null,
                "bias": null,
                "activation": 1,
                "error": null
            },
            {
                "weights": null,
                "bias": null,
                "activation": 0,
                "error": null
            },
            {
                "weights": null,
                "bias": null,
                "activation": 0,
                "error": null
            },
            {
                "weights": null,
                "bias": null,
                "activation": 0,
                "error": null
            },
            {
                "weights": null,
                "bias": null,
                "activation": 0,
                "error": null
            },
            {
                "weights": null,
                "bias": null,
                "activation": 0,
                "error": null
            },
            {
                "weights": null,
                "bias": null,
                "activation": 0,
                "error": null
            }
        ],
        [
            {
                "weights": [
                    0.008942672900821957,
                    -0.24678093799354306,
                    0.21147429300394982,
                    0.0430619661236582,
                    -0.08043059297836563,
                    -0.25016526917910387,
                    -0.48823751636925417,
                    -0.23470386112810926,
                    0.11294462974990527
                ],
                "bias": -0.4912052394957691,
                "activation": 0,
                "error": 0.0
            },
            {
                "weights": [
                    0.22255622339115422,
                    -0.15882623330118295,
                    -0.25803916343120936,
                    -0.45127317093606534,
                    0.3958468237988314,
                    -0.40207443722525227,
                    -0.42577198136466,
                    -0.11052883060965069,
                    0.0708608498285701
                ],
                "bias": -0.41062466079310433,
                "activation": 0,
                "error": 0.0
            },
            {
                "weights": [
                    0.2807174956393765,
                    0.32795717269248986,
                    0.4393495687429478,
                    -0.3049982149935166,
                    0.4487598155695309,
                    -0.43027066820564547,
                    -0.1605852001221861,
                    0.02398645154270012,
                    0.2527312241827809
                ],
                "bias": -0.1275044666895323,
                "activation": 0.9205504597552644,
                "error": 0.9053561795437125
            },
            {
                "weights": [
                    0.4260134190856694,
                    0.4161349829985242,
                    0.29228177477392187,
                    -0.27879435049141127,
                    -0.19125746258118065,
                    0.21778327109299372,
                    0.4947181194233888,
                    -0.3582825183543475,
                    0.06755355529816776
                ],
                "bias": -0.4606010805345323,
                "activation": 0.6736367528929924,
                "error": 0.7169283202958172
            },
            {
                "weights": [
                    -0.2109355330809336,
                    -0.15272330226705055,
                    -0.3389748685132806,
                    -0.23331849692572237,
                    0.035385656151388334,
                    0.22439436193635232,
                    -0.28436523135497727,
                    -0.45987326435906883,
                    -0.30258075646198446
                ],
                "bias": -0.18119955926650577,
                "activation": 0,
                "error": 0.0
            }
        ],
        [
            {
                "weights": [
                    0.4642233458509585,
                    0.2837827144974543,
                    -0.17509792070960684,
                    -0.23108495849803512,
                    0.04031682621248367
                ],
                "bias": -0.35323541734825525,
                "activation": 0,
                "error": 0.0
            },
            {
                "weights": [
                    0.1206313233942393,
                    0.268093858158425,
                    0.3800038423059301,
                    -0.3468530355811107,
                    0.16076793038222126
                ],
                "bias": -0.22765230642987622,
                "activation": 0,
                "error": 0.0
            },
            {
                "weights": [
                    -0.12440926635346938,
                    0.3755188784361436,
                    -0.23105762012821363,
                    0.2249351604969596,
                    0.11361236672775954
                ],
                "bias": -0.2179569452938278,
                "activation": 0,
                "error": 0.0
            },
            {
                "weights": [
                    -0.03207162717784912,
                    0.1130273420582949,
                    -0.26446540625443876,
                    0.1313409727438465,
                    -0.0777399302994165
                ],
                "bias": 0.16607201316329356,
                "activation": 0.011094319702478317,
                "error": 0.036112059454922296
            },
            {
                "weights": [
                    -0.18852705987326474,
                    0.10646500847375448,
                    0.24621384503486005,
                    -0.4779523625717105,
                    0.08516994205308034
                ],
                "bias": 0.16424385255270813,
                "activation": 0.06892761671695127,
                "error": 0.10050072806620139
            }
        ],
        [
            {
                "weights": [
                    -0.8774841211166157,
                    -0.4851348801155856,
                    -0.2376282608992196,
                    -0.7948766233958485,
                    -0.8817060084221934
                ],
                "bias": -0.4840719941059005,
                "activation": 0.3850751102202772,
                "error": -0.6149248897797228
            },
            {
                "weights": [
                    -0.8987944796998674,
                    -0.47725200794722167,
                    -0.41940398624370767,
                    -0.8355608438075574,
                    -0.933050671606278
                ],
                "bias": -0.011946875676305924,
                "activation": 0.6149248897797228,
                "error": 0.6149248897797228
            }
        ]
    ],
    [
        [
            {
                "weights": null,
                "bias": null,
                "activation": 1,
                "error": null
            },
            {
                "weights": null,
                "bias": null,
                "activation": 1,
                "error": null
            },
            {
                "weights": null,
                "bias": null,
                "activation": 1,
                "error": null
            },
            {
                "weights": null,
                "bias": null,
                "activation": 0,
                "error": null
            },
            {
                "weights": null,
                "bias": null,
                "activation": 0,
                "error": null
            },
            {
                "weights": null,
                "bias": null,
                "activation": 0,
                "error": null
            },
            {
                "weights": null,
                "bias": null,
                "activation": 0,
                "error": null
            },
            {
                "weights": null,
                "bias": null,
                "activation": 0,
                "error": null
            },
            {
                "weights": null,
                "bias": null,
                "activation": 0,
                "error": null
            }
        ],
        [
            {
                "weights": [
                    0.008942672900821957,
                    -0.24678093799354306,
                    0.21147429300394982,
                    0.0430619661236582,
                    -0.08043059297836563,
                    -0.25016526917910387,
                    -0.48823751636925417,
                    -0.23470386112810926,
                    0.11294462974990527
                ],
                "bias": -0.4912052394957691,
                "activation": 0,
                "error": 0.0
            },
            {
                "weights": [
                    0.22255622339115422,
                    -0.15882623330118295,
                    -0.25803916343120936,
                    -0.45127317093606534,
                    0.3958468237988314,
                    -0.40207443722525227,
                    -0.42577198136466,
                    -0.11052883060965069,
                    0.0708608498285701
                ],
                "bias": -0.41062466079310433,
                "activation": 0,
                "error": 0.0
            },
            {
                "weights": [
                    0.2807174956393765,
                    0.32795717269248986,
                    0.4393495687429478,
                    -0.3049982149935166,
                    0.4487598155695309,
                    -0.43027066820564547,
                    -0.1605852001221861,
                    0.02398645154270012,
                    0.2527312241827809
                ],
                "bias": -0.1275044666895323,
                "activation": 0.9205504597552644,
                "error": 0.9053561795437125
            },
            {
                "weights": [
                    0.4260134190856694,
                    0.4161349829985242,
                    0.29228177477392187,
                    -0.27879435049141127,
                    -0.19125746258118065,
                    0.21778327109299372,
                    0.4947181194233888,
                    -0.3582825183543475,
                    0.06755355529816776
                ],
                "bias": -0.4606010805345323,
                "activation": 0.6736367528929924,
                "error": 0.7169283202958172
            },
            {
                "weights": [
                    -0.2109355330809336,
                    -0.15272330226705055,
                    -0.3389748685132806,
                    -0.23331849692572237,
                    0.035385656151388334,
                    0.22439436193635232,
                    -0.28436523135497727,
                    -0.45987326435906883,
                    -0.30258075646198446
                ],
                "bias": -0.18119955926650577,
                "activation": 0,
                "error": 0.0
            }
        ],
        [
            {
                "weights": [
                    0.4642233458509585,
                    0.2837827144974543,
                    -0.17509792070960684,
                    -0.23108495849803512,
                    0.04031682621248367
                ],
                "bias": -0.35323541734825525,
                "activation": 0,
                "error": 0.0
            },
            {
                "weights": [
                    0.1206313233942393,
                    0.268093858158425,
                    0.3800038423059301,
                    -0.3468530355811107,
                    0.16076793038222126
                ],
                "bias": -0.22765230642987622,
                "activation": 0,
                "error": 0.0
            },
            {
                "weights": [
                    -0.12440926635346938,
                    0.3755188784361436,
                    -0.23105762012821363,
                    0.2249351604969596,
                    0.11361236672775954
                ],
                "bias": -0.2179569452938278,
                "activation": 0,
                "error": 0.0
            },
            {
                "weights": [
                    -0.03207162717784912,
                    0.1130273420582949,
                    -0.26446540625443876,
                    0.1313409727438465,
                    -0.0777399302994165
                ],
                "bias": 0.16607201316329356,
                "activation": 0.011094319702478317,
                "error": 0.036112059454922296
            },
            {
                "weights": [
                    -0.18852705987326474,
                    0.10646500847375448,
                    0.24621384503486005,
                    -0.4779523625717105,
                    0.08516994205308034
                ],
                "bias": 0.16424385255270813,
                "activation": 0.06892761671695127,
                "error": 0.10050072806620139
            }
        ],
        [
            {
                "weights": [
                    -0.8774841211166157,
                    -0.4851348801155856,
                    -0.2376282608992196,
                    -0.7948766233958485,
                    -0.8817060084221934
                ],
                "bias": -0.4840719941059005,
                "activation": 0.3850751102202772,
                "error": -0.6149248897797228
            },
            {
                "weights": [
                    -0.8987944796998674,
                    -0.47725200794722167,
                    -0.41940398624370767,
                    -0.8355608438075574,
                    -0.933050671606278
                ],
                "bias": -0.011946875676305924,
                "activation": 0.6149248897797228,
                "error": 0.6149248897797228
            }
        ]
    ],
    [
        [
            {
                "weights": null,
                "bias": null,
                "activation": 1,
                "error": null
            },
            {
                "weights": null,
                "bias": null,
                "activation": 1,
                "error": null
            },
            {
                "weights": null,
                "bias": null,
                "activation": 1,
                "error": null
            },
            {
                "weights": null,
                "bias": null,
                "activation": 0,
                "error": null
            },
            {
                "weights": null,
                "bias": null,
                "activation": 0,
                "error": null
            },
            {
                "weights": null,
                "bias": null,
                "activation": 0,
                "error": null
            },
            {
                "weights": null,
                "bias": null,
                "activation": 0,
                "error": null
            },
            {
                "weights": null,
                "bias": null,
                "activation": 0,
                "error": null
            },
            {
                "weights": null,
                "bias": null,
                "activation": 0,
                "error": null
            }
        ],
        [
            {
                "weights": [
                    0.008942672900821957,
                    -0.24678093799354306,
                    0.21147429300394982,
                    0.0430619661236582,
                    -0.08043059297836563,
                    -0.25016526917910387,
                    -0.48823751636925417,
                    -0.23470386112810926,
                    0.11294462974990527
                ],
                "bias": -0.4912052394957691,
                "activation": 0,
                "error": 0.0
            },
            {
                "weights": [
                    0.22255622339115422,
                    -0.15882623330118295,
                    -0.25803916343120936,
                    -0.45127317093606534,
                    0.3958468237988314,
                    -0.40207443722525227,
                    -0.42577198136466,
                    -0.11052883060965069,
                    0.0708608498285701
                ],
                "bias": -0.41062466079310433,
                "activation": 0,
                "error": 0.0
            },
            {
                "weights": [
                    0.2807174956393765,
                    0.32795717269248986,
                    0.4393495687429478,
                    -0.3049982149935166,
                    0.4487598155695309,
                    -0.43027066820564547,
                    -0.1605852001221861,
                    0.02398645154270012,
                    0.2527312241827809
                ],
                "bias": -0.1275044666895323,
                "activation": 0.9205504597552644,
                "error": 0.9053561795437125
            },
            {
                "weights": [
                    0.4260134190856694,
                    0.4161349829985242,
                    0.29228177477392187,
                    -0.27879435049141127,
                    -0.19125746258118065,
                    0.21778327109299372,
                    0.4947181194233888,
                    -0.3582825183543475,
                    0.06755355529816776
                ],
                "bias": -0.4606010805345323,
                "activation": 0.6736367528929924,
                "error": 0.7169283202958172
            },
            {
                "weights": [
                    -0.2109355330809336,
                    -0.15272330226705055,
                    -0.3389748685132806,
                    -0.23331849692572237,
                    0.035385656151388334,
                    0.22439436193635232,
                    -0.28436523135497727,
                    -0.45987326435906883,
                    -0.30258075646198446
                ],
                "bias": -0.18119955926650577,
                "activation": 0,
                "error": 0.0
            }
        ],
        [
            {
                "weights": [
                    0.4642233458509585,
                    0.2837827144974543,
                    -0.17509792070960684,
                    -0.23108495849803512,
                    0.04031682621248367
                ],
                "bias": -0.35323541734825525,
                "activation": 0,
                "error": 0.0
            },
            {
                "weights": [
                    0.1206313233942393,
                    0.268093858158425,
                    0.3800038423059301,
                    -0.3468530355811107,
                    0.16076793038222126
                ],
                "bias": -0.22765230642987622,
                "activation": 0,
                "error": 0.0
            },
            {
                "weights": [
                    -0.12440926635346938,
                    0.3755188784361436,
                    -0.23105762012821363,
                    0.2249351604969596,
                    0.11361236672775954
                ],
                "bias": -0.2179569452938278,
                "activation": 0,
                "error": 0.0
            },
            {
                "weights": [
                    -0.03207162717784912,
                    0.1130273420582949,
                    -0.26446540625443876,
                    0.1313409727438465,
                    -0.0777399302994165
                ],
                "bias": 0.16607201316329356,
                "activation": 0.011094319702478317,
                "error": 0.036112059454922296
            },
            {
                "weights": [
                    -0.18852705987326474,
                    0.10646500847375448,
                    0.24621384503486005,
                    -0.4779523625717105,
                    0.08516994205308034
                ],
                "bias": 0.16424385255270813,
                "activation": 0.06892761671695127,
                "error": 0.10050072806620139
            }
        ],
        [
            {
                "weights": [
                    -0.8774841211166157,
                    -0.4851348801155856,
                    -0.2376282608992196,
                    -0.7948766233958485,
                    -0.8817060084221934
                ],
                "bias": -0.4840719941059005,
                "activation": 0.3850751102202772,
                "error": -0.6149248897797228
            },
            {
                "weights": [
                    -0.8987944796998674,
                    -0.47725200794722167,
                    -0.41940398624370767,
                    -0.8355608438075574,
                    -0.933050671606278
                ],
                "bias": -0.011946875676305924,
                "activation": 0.6149248897797228,
                "error": 0.6149248897797228
            }
        ]
    ],
    [
        [
            {
                "weights": null,
                "bias": null,
                "activation": 1,
                "error": null
            },
            {
                "weights": null,
                "bias": null,
                "activation": 1,
                "error": null
            },
            {
                "weights": null,
                "bias": null,
                "activation": 1,
                "error": null
            },
            {
                "weights": null,
                "bias": null,
                "activation": 0,
                "error": null
            },
            {
                "weights": null,
                "bias": null,
                "activation": 0,
                "error": null
            },
            {
                "weights": null,
                "bias": null,
                "activation": 0,
                "error": null
            },
            {
                "weights": null,
                "bias": null,
                "activation": 0,
                "error": null
            },
            {
                "weights": null,
                "bias": null,
                "activation": 0,
                "error": null
            },
            {
                "weights": null,
                "bias": null,
                "activation": 0,
                "error": null
            }
        ],
        [
            {
                "weights": [
                    0.008942672900821957,
                    -0.24678093799354306,
                    0.21147429300394982,
                    0.0430619661236582,
                    -0.08043059297836563,
                    -0.25016526917910387,
                    -0.48823751636925417,
                    -0.23470386112810926,
                    0.11294462974990527
                ],
                "bias": -0.4912052394957691,
                "activation": 0,
                "error": 0.0
            },
            {
                "weights": [
                    0.22255622339115422,
                    -0.15882623330118295,
                    -0.25803916343120936,
                    -0.45127317093606534,
                    0.3958468237988314,
                    -0.40207443722525227,
                    -0.42577198136466,
                    -0.11052883060965069,
                    0.0708608498285701
                ],
                "bias": -0.41062466079310433,
                "activation": 0,
                "error": 0.0
            },
            {
                "weights": [
                    0.2807174956393765,
                    0.32795717269248986,
                    0.4393495687429478,
                    -0.3049982149935166,
                    0.4487598155695309,
                    -0.43027066820564547,
                    -0.1605852001221861,
                    0.02398645154270012,
                    0.2527312241827809
                ],
                "bias": -0.1275044666895323,
                "activation": 0.9205504597552644,
                "error": 0.9053561795437125
            },
            {
                "weights": [
                    0.4260134190856694,
                    0.4161349829985242,
                    0.29228177477392187,
                    -0.27879435049141127,
                    -0.19125746258118065,
                    0.21778327109299372,
                    0.4947181194233888,
                    -0.3582825183543475,
                    0.06755355529816776
                ],
                "bias": -0.4606010805345323,
                "activation": 0.6736367528929924,
                "error": 0.7169283202958172
            },
            {
                "weights": [
                    -0.2109355330809336,
                    -0.15272330226705055,
                    -0.3389748685132806,
                    -0.23331849692572237,
                    0.035385656151388334,
                    0.22439436193635232,
                    -0.28436523135497727,
                    -0.45987326435906883,
                    -0.30258075646198446
                ],
                "bias": -0.18119955926650577,
                "activation": 0,
                "error": 0.0
            }
        ],
        [
            {
                "weights": [
                    0.4642233458509585,
                    0.2837827144974543,
                    -0.17509792070960684,
                    -0.23108495849803512,
                    0.04031682621248367
                ],
                "bias": -0.35323541734825525,
                "activation": 0,
                "error": 0.0
            },
            {
                "weights": [
                    0.1206313233942393,
                    0.268093858158425,
                    0.3800038423059301,
                    -0.3468530355811107,
                    0.16076793038222126
                ],
                "bias": -0.22765230642987622,
                "activation": 0,
                "error": 0.0
            },
            {
                "weights": [
                    -0.12440926635346938,
                    0.3755188784361436,
                    -0.23105762012821363,
                    0.2249351604969596,
                    0.11361236672775954
                ],
                "bias": -0.2179569452938278,
                "activation": 0,
                "error": 0.0
            },
            {
                "weights": [
                    -0.03207162717784912,
                    0.1130273420582949,
                    -0.26446540625443876,
                    0.1313409727438465,
                    -0.0777399302994165
                ],
                "bias": 0.16607201316329356,
                "activation": 0.011094319702478317,
                "error": 0.036112059454922296
            },
            {
                "weights": [
                    -0.18852705987326474,
                    0.10646500847375448,
                    0.24621384503486005,
                    -0.4779523625717105,
                    0.08516994205308034
                ],
                "bias": 0.16424385255270813,
                "activation": 0.06892761671695127,
                "error": 0.10050072806620139
            }
        ],
        [
            {
                "weights": [
                    -0.8774841211166157,
                    -0.4851348801155856,
                    -0.2376282608992196,
                    -0.7948766233958485,
                    -0.8817060084221934
                ],
                "bias": -0.4840719941059005,
                "activation": 0.3850751102202772,
                "error": -0.6149248897797228
            },
            {
                "weights": [
                    -0.8987944796998674,
                    -0.47725200794722167,
                    -0.41940398624370767,
                    -0.8355608438075574,
                    -0.933050671606278
                ],
                "bias": -0.011946875676305924,
                "activation": 0.6149248897797228,
                "error": 0.6149248897797228
            }
        ]
    ],
    [
        [
            {
                "weights": null,
                "bias": null,
                "activation": 1,
                "error": null
            },
            {
                "weights": null,
                "bias": null,
                "activation": 1,
                "error": null
            },
            {
                "weights": null,
                "bias": null,
                "activation": 1,
                "error": null
            },
            {
                "weights": null,
                "bias": null,
                "activation": 0,
                "error": null
            },
            {
                "weights": null,
                "bias": null,
                "activation": 0,
                "error": null
            },
            {
                "weights": null,
                "bias": null,
                "activation": 0,
                "error": null
            },
            {
                "weights": null,
                "bias": null,
                "activation": 0,
                "error": null
            },
            {
                "weights": null,
                "bias": null,
                "activation": 0,
                "error": null
            },
            {
                "weights": null,
                "bias": null,
                "activation": 0,
                "error": null
            }
        ],
        [
            {
                "weights": [
                    0.008942672900821957,
                    -0.24678093799354306,
                    0.21147429300394982,
                    0.0430619661236582,
                    -0.08043059297836563,
                    -0.25016526917910387,
                    -0.48823751636925417,
                    -0.23470386112810926,
                    0.11294462974990527
                ],
                "bias": -0.4912052394957691,
                "activation": 0,
                "error": 0.0
            },
            {
                "weights": [
                    0.22255622339115422,
                    -0.15882623330118295,
                    -0.25803916343120936,
                    -0.45127317093606534,
                    0.3958468237988314,
                    -0.40207443722525227,
                    -0.42577198136466,
                    -0.11052883060965069,
                    0.0708608498285701
                ],
                "bias": -0.41062466079310433,
                "activation": 0,
                "error": 0.0
            },
            {
                "weights": [
                    0.2807174956393765,
                    0.32795717269248986,
                    0.4393495687429478,
                    -0.3049982149935166,
                    0.4487598155695309,
                    -0.43027066820564547,
                    -0.1605852001221861,
                    0.02398645154270012,
                    0.2527312241827809
                ],
                "bias": -0.1275044666895323,
                "activation": 0.9205504597552644,
                "error": 0.9053561795437125
            },
            {
                "weights": [
                    0.4260134190856694,
                    0.4161349829985242,
                    0.29228177477392187,
                    -0.27879435049141127,
                    -0.19125746258118065,
                    0.21778327109299372,
                    0.4947181194233888,
                    -0.3582825183543475,
                    0.06755355529816776
                ],
                "bias": -0.4606010805345323,
                "activation": 0.6736367528929924,
                "error": 0.7169283202958172
            },
            {
                "weights": [
                    -0.2109355330809336,
                    -0.15272330226705055,
                    -0.3389748685132806,
                    -0.23331849692572237,
                    0.035385656151388334,
                    0.22439436193635232,
                    -0.28436523135497727,
                    -0.45987326435906883,
                    -0.30258075646198446
                ],
                "bias": -0.18119955926650577,
                "activation": 0,
                "error": 0.0
            }
        ],
        [
            {
                "weights": [
                    0.4642233458509585,
                    0.2837827144974543,
                    -0.17509792070960684,
                    -0.23108495849803512,
                    0.04031682621248367
                ],
                "bias": -0.35323541734825525,
                "activation": 0,
                "error": 0.0
            },
            {
                "weights": [
                    0.1206313233942393,
                    0.268093858158425,
                    0.3800038423059301,
                    -0.3468530355811107,
                    0.16076793038222126
                ],
                "bias": -0.22765230642987622,
                "activation": 0,
                "error": 0.0
            },
            {
                "weights": [
                    -0.12440926635346938,
                    0.3755188784361436,
                    -0.23105762012821363,
                    0.2249351604969596,
                    0.11361236672775954
                ],
                "bias": -0.2179569452938278,
                "activation": 0,
                "error": 0.0
            },
            {
                "weights": [
                    -0.03207162717784912,
                    0.1130273420582949,
                    -0.26446540625443876,
                    0.1313409727438465,
                    -0.0777399302994165
                ],
                "bias": 0.16607201316329356,
                "activation": 0.011094319702478317,
                "error": 0.036112059454922296
            },
            {
                "weights": [
                    -0.18852705987326474,
                    0.10646500847375448,
                    0.24621384503486005,
                    -0.4779523625717105,
                    0.08516994205308034
                ],
                "bias": 0.16424385255270813,
                "activation": 0.06892761671695127,
                "error": 0.10050072806620139
            }
        ],
        [
            {
                "weights": [
                    -0.8774841211166157,
                    -0.4851348801155856,
                    -0.2376282608992196,
                    -0.7948766233958485,
                    -0.8817060084221934
                ],
                "bias": -0.4840719941059005,
                "activation": 0.3850751102202772,
                "error": -0.6149248897797228
            },
            {
                "weights": [
                    -0.8987944796998674,
                    -0.47725200794722167,
                    -0.41940398624370767,
                    -0.8355608438075574,
                    -0.933050671606278
                ],
                "bias": -0.011946875676305924,
                "activation": 0.6149248897797228,
                "error": 0.6149248897797228
            }
        ]
    ],
    [
        [
            {
                "weights": null,
                "bias": null,
                "activation": 1,
                "error": null
            },
            {
                "weights": null,
                "bias": null,
                "activation": 1,
                "error": null
            },
            {
                "weights": null,
                "bias": null,
                "activation": 1,
                "error": null
            },
            {
                "weights": null,
                "bias": null,
                "activation": 0,
                "error": null
            },
            {
                "weights": null,
                "bias": null,
                "activation": 0,
                "error": null
            },
            {
                "weights": null,
                "bias": null,
                "activation": 0,
                "error": null
            },
            {
                "weights": null,
                "bias": null,
                "activation": 0,
                "error": null
            },
            {
                "weights": null,
                "bias": null,
                "activation": 0,
                "error": null
            },
            {
                "weights": null,
                "bias": null,
                "activation": 0,
                "error": null
            }
        ],
        [
            {
                "weights": [
                    0.008942672900821957,
                    -0.24678093799354306,
                    0.21147429300394982,
                    0.0430619661236582,
                    -0.08043059297836563,
                    -0.25016526917910387,
                    -0.48823751636925417,
                    -0.23470386112810926,
                    0.11294462974990527
                ],
                "bias": -0.4912052394957691,
                "activation": 0,
                "error": 0.0
            },
            {
                "weights": [
                    0.22255622339115422,
                    -0.15882623330118295,
                    -0.25803916343120936,
                    -0.45127317093606534,
                    0.3958468237988314,
                    -0.40207443722525227,
                    -0.42577198136466,
                    -0.11052883060965069,
                    0.0708608498285701
                ],
                "bias": -0.41062466079310433,
                "activation": 0,
                "error": 0.0
            },
            {
                "weights": [
                    0.2807174956393765,
                    0.32795717269248986,
                    0.4393495687429478,
                    -0.3049982149935166,
                    0.4487598155695309,
                    -0.43027066820564547,
                    -0.1605852001221861,
                    0.02398645154270012,
                    0.2527312241827809
                ],
                "bias": -0.1275044666895323,
                "activation": 0.9205504597552644,
                "error": 0.9053561795437125
            },
            {
                "weights": [
                    0.4260134190856694,
                    0.4161349829985242,
                    0.29228177477392187,
                    -0.27879435049141127,
                    -0.19125746258118065,
                    0.21778327109299372,
                    0.4947181194233888,
                    -0.3582825183543475,
                    0.06755355529816776
                ],
                "bias": -0.4606010805345323,
                "activation": 0.6736367528929924,
                "error": 0.7169283202958172
            },
            {
                "weights": [
                    -0.2109355330809336,
                    -0.15272330226705055,
                    -0.3389748685132806,
                    -0.23331849692572237,
                    0.035385656151388334,
                    0.22439436193635232,
                    -0.28436523135497727,
                    -0.45987326435906883,
                    -0.30258075646198446
                ],
                "bias": -0.18119955926650577,
                "activation": 0,
                "error": 0.0
            }
        ],
        [
            {
                "weights": [
                    0.4642233458509585,
                    0.2837827144974543,
                    -0.17509792070960684,
                    -0.23108495849803512,
                    0.04031682621248367
                ],
                "bias": -0.35323541734825525,
                "activation": 0,
                "error": 0.0
            },
            {
                "weights": [
                    0.1206313233942393,
                    0.268093858158425,
                    0.3800038423059301,
                    -0.3468530355811107,
                    0.16076793038222126
                ],
                "bias": -0.22765230642987622,
                "activation": 0,
                "error": 0.0
            },
            {
                "weights": [
                    -0.12440926635346938,
                    0.3755188784361436,
                    -0.23105762012821363,
                    0.2249351604969596,
                    0.11361236672775954
                ],
                "bias": -0.2179569452938278,
                "activation": 0,
                "error": 0.0
            },
            {
                "weights": [
                    -0.03207162717784912,
                    0.1130273420582949,
                    -0.26446540625443876,
                    0.1313409727438465,
                    -0.0777399302994165
                ],
                "bias": 0.16607201316329356,
                "activation": 0.011094319702478317,
                "error": 0.036112059454922296
            },
            {
                "weights": [
                    -0.18852705987326474,
                    0.10646500847375448,
                    0.24621384503486005,
                    -0.4779523625717105,
                    0.08516994205308034
                ],
                "bias": 0.16424385255270813,
                "activation": 0.06892761671695127,
                "error": 0.10050072806620139
            }
        ],
        [
            {
                "weights": [
                    -0.8774841211166157,
                    -0.4851348801155856,
                    -0.2376282608992196,
                    -0.7948766233958485,
                    -0.8817060084221934
                ],
                "bias": -0.4840719941059005,
                "activation": 0.3850751102202772,
                "error": -0.6149248897797228
            },
            {
                "weights": [
                    -0.8987944796998674,
                    -0.47725200794722167,
                    -0.41940398624370767,
                    -0.8355608438075574,
                    -0.933050671606278
                ],
                "bias": -0.011946875676305924,
                "activation": 0.6149248897797228,
                "error": 0.6149248897797228
            }
        ]
    ],
    [
        [
            {
                "weights": null,
                "bias": null,
                "activation": 1,
                "error": null
            },
            {
                "weights": null,
                "bias": null,
                "activation": 1,
                "error": null
            },
            {
                "weights": null,
                "bias": null,
                "activation": 1,
                "error": null
            },
            {
                "weights": null,
                "bias": null,
                "activation": 0,
                "error": null
            },
            {
                "weights": null,
                "bias": null,
                "activation": 0,
                "error": null
            },
            {
                "weights": null,
                "bias": null,
                "activation": 0,
                "error": null
            },
            {
                "weights": null,
                "bias": null,
                "activation": 0,
                "error": null
            },
            {
                "weights": null,
                "bias": null,
                "activation": 0,
                "error": null
            },
            {
                "weights": null,
                "bias": null,
                "activation": 0,
                "error": null
            }
        ],
        [
            {
                "weights": [
                    0.008942672900821957,
                    -0.24678093799354306,
                    0.21147429300394982,
                    0.0430619661236582,
                    -0.08043059297836563,
                    -0.25016526917910387,
                    -0.48823751636925417,
                    -0.23470386112810926,
                    0.11294462974990527
                ],
                "bias": -0.4912052394957691,
                "activation": 0,
                "error": 0.0
            },
            {
                "weights": [
                    0.22255622339115422,
                    -0.15882623330118295,
                    -0.25803916343120936,
                    -0.45127317093606534,
                    0.3958468237988314,
                    -0.40207443722525227,
                    -0.42577198136466,
                    -0.11052883060965069,
                    0.0708608498285701
                ],
                "bias": -0.41062466079310433,
                "activation": 0,
                "error": 0.0
            },
            {
                "weights": [
                    0.2807174956393765,
                    0.32795717269248986,
                    0.4393495687429478,
                    -0.3049982149935166,
                    0.4487598155695309,
                    -0.43027066820564547,
                    -0.1605852001221861,
                    0.02398645154270012,
                    0.2527312241827809
                ],
                "bias": -0.1275044666895323,
                "activation": 0.9205504597552644,
                "error": 0.9053561795437125
            },
            {
                "weights": [
                    0.4260134190856694,
                    0.4161349829985242,
                    0.29228177477392187,
                    -0.27879435049141127,
                    -0.19125746258118065,
                    0.21778327109299372,
                    0.4947181194233888,
                    -0.3582825183543475,
                    0.06755355529816776
                ],
                "bias": -0.4606010805345323,
                "activation": 0.6736367528929924,
                "error": 0.7169283202958172
            },
            {
                "weights": [
                    -0.2109355330809336,
                    -0.15272330226705055,
                    -0.3389748685132806,
                    -0.23331849692572237,
                    0.035385656151388334,
                    0.22439436193635232,
                    -0.28436523135497727,
                    -0.45987326435906883,
                    -0.30258075646198446
                ],
                "bias": -0.18119955926650577,
                "activation": 0,
                "error": 0.0
            }
        ],
        [
            {
                "weights": [
                    0.4642233458509585,
                    0.2837827144974543,
                    -0.17509792070960684,
                    -0.23108495849803512,
                    0.04031682621248367
                ],
                "bias": -0.35323541734825525,
                "activation": 0,
                "error": 0.0
            },
            {
                "weights": [
                    0.1206313233942393,
                    0.268093858158425,
                    0.3800038423059301,
                    -0.3468530355811107,
                    0.16076793038222126
                ],
                "bias": -0.22765230642987622,
                "activation": 0,
                "error": 0.0
            },
            {
                "weights": [
                    -0.12440926635346938,
                    0.3755188784361436,
                    -0.23105762012821363,
                    0.2249351604969596,
                    0.11361236672775954
                ],
                "bias": -0.2179569452938278,
                "activation": 0,
                "error": 0.0
            },
            {
                "weights": [
                    -0.03207162717784912,
                    0.1130273420582949,
                    -0.26446540625443876,
                    0.1313409727438465,
                    -0.0777399302994165
                ],
                "bias": 0.16607201316329356,
                "activation": 0.011094319702478317,
                "error": 0.036112059454922296
            },
            {
                "weights": [
                    -0.18852705987326474,
                    0.10646500847375448,
                    0.24621384503486005,
                    -0.4779523625717105,
                    0.08516994205308034
                ],
                "bias": 0.16424385255270813,
                "activation": 0.06892761671695127,
                "error": 0.10050072806620139
            }
        ],
        [
            {
                "weights": [
                    -0.8774841211166157,
                    -0.4851348801155856,
                    -0.2376282608992196,
                    -0.7948766233958485,
                    -0.8817060084221934
                ],
                "bias": -0.4840719941059005,
                "activation": 0.3850751102202772,
                "error": -0.6149248897797228
            },
            {
                "weights": [
                    -0.8987944796998674,
                    -0.47725200794722167,
                    -0.41940398624370767,
                    -0.8355608438075574,
                    -0.933050671606278
                ],
                "bias": -0.011946875676305924,
                "activation": 0.6149248897797228,
                "error": 0.6149248897797228
            }
        ]
    ],
    [
        [
            {
                "weights": null,
                "bias": null,
                "activation": 1,
                "error": null
            },
            {
                "weights": null,
                "bias": null,
                "activation": 1,
                "error": null
            },
            {
                "weights": null,
                "bias": null,
                "activation": 1,
                "error": null
            },
            {
                "weights": null,
                "bias": null,
                "activation": 0,
                "error": null
            },
            {
                "weights": null,
                "bias": null,
                "activation": 0,
                "error": null
            },
            {
                "weights": null,
                "bias": null,
                "activation": 0,
                "error": null
            },
            {
                "weights": null,
                "bias": null,
                "activation": 0,
                "error": null
            },
            {
                "weights": null,
                "bias": null,
                "activation": 0,
                "error": null
            },
            {
                "weights": null,
                "bias": null,
                "activation": 0,
                "error": null
            }
        ],
        [
            {
                "weights": [
                    0.008942672900821957,
                    -0.24678093799354306,
                    0.21147429300394982,
                    0.0430619661236582,
                    -0.08043059297836563,
                    -0.25016526917910387,
                    -0.48823751636925417,
                    -0.23470386112810926,
                    0.11294462974990527
                ],
                "bias": -0.4912052394957691,
                "activation": 0,
                "error": 0.0
            },
            {
                "weights": [
                    0.22255622339115422,
                    -0.15882623330118295,
                    -0.25803916343120936,
                    -0.45127317093606534,
                    0.3958468237988314,
                    -0.40207443722525227,
                    -0.42577198136466,
                    -0.11052883060965069,
                    0.0708608498285701
                ],
                "bias": -0.41062466079310433,
                "activation": 0,
                "error": 0.0
            },
            {
                "weights": [
                    0.2807174956393765,
                    0.32795717269248986,
                    0.4393495687429478,
                    -0.3049982149935166,
                    0.4487598155695309,
                    -0.43027066820564547,
                    -0.1605852001221861,
                    0.02398645154270012,
                    0.2527312241827809
                ],
                "bias": -0.1275044666895323,
                "activation": 0.9205504597552644,
                "error": 0.9053561795437125
            },
            {
                "weights": [
                    0.4260134190856694,
                    0.4161349829985242,
                    0.29228177477392187,
                    -0.27879435049141127,
                    -0.19125746258118065,
                    0.21778327109299372,
                    0.4947181194233888,
                    -0.3582825183543475,
                    0.06755355529816776
                ],
                "bias": -0.4606010805345323,
                "activation": 0.6736367528929924,
                "error": 0.7169283202958172
            },
            {
                "weights": [
                    -0.2109355330809336,
                    -0.15272330226705055,
                    -0.3389748685132806,
                    -0.23331849692572237,
                    0.035385656151388334,
                    0.22439436193635232,
                    -0.28436523135497727,
                    -0.45987326435906883,
                    -0.30258075646198446
                ],
                "bias": -0.18119955926650577,
                "activation": 0,
                "error": 0.0
            }
        ],
        [
            {
                "weights": [
                    0.4642233458509585,
                    0.2837827144974543,
                    -0.17509792070960684,
                    -0.23108495849803512,
                    0.04031682621248367
                ],
                "bias": -0.35323541734825525,
                "activation": 0,
                "error": 0.0
            },
            {
                "weights": [
                    0.1206313233942393,
                    0.268093858158425,
                    0.3800038423059301,
                    -0.3468530355811107,
                    0.16076793038222126
                ],
                "bias": -0.22765230642987622,
                "activation": 0,
                "error": 0.0
            },
            {
                "weights": [
                    -0.12440926635346938,
                    0.3755188784361436,
                    -0.23105762012821363,
                    0.2249351604969596,
                    0.11361236672775954
                ],
                "bias": -0.2179569452938278,
                "activation": 0,
                "error": 0.0
            },
            {
                "weights": [
                    -0.03207162717784912,
                    0.1130273420582949,
                    -0.26446540625443876,
                    0.1313409727438465,
                    -0.0777399302994165
                ],
                "bias": 0.16607201316329356,
                "activation": 0.011094319702478317,
                "error": 0.036112059454922296
            },
            {
                "weights": [
                    -0.18852705987326474,
                    0.10646500847375448,
                    0.24621384503486005,
                    -0.4779523625717105,
                    0.08516994205308034
                ],
                "bias": 0.16424385255270813,
                "activation": 0.06892761671695127,
                "error": 0.10050072806620139
            }
        ],
        [
            {
                "weights": [
                    -0.8774841211166157,
                    -0.4851348801155856,
                    -0.2376282608992196,
                    -0.7948766233958485,
                    -0.8817060084221934
                ],
                "bias": -0.4840719941059005,
                "activation": 0.3850751102202772,
                "error": -0.6149248897797228
            },
            {
                "weights": [
                    -0.8987944796998674,
                    -0.47725200794722167,
                    -0.41940398624370767,
                    -0.8355608438075574,
                    -0.933050671606278
                ],
                "bias": -0.011946875676305924,
                "activation": 0.6149248897797228,
                "error": 0.6149248897797228
            }
        ]
    ],
    [
        [
            {
                "weights": null,
                "bias": null,
                "activation": 1,
                "error": null
            },
            {
                "weights": null,
                "bias": null,
                "activation": 1,
                "error": null
            },
            {
                "weights": null,
                "bias": null,
                "activation": 1,
                "error": null
            },
            {
                "weights": null,
                "bias": null,
                "activation": 0,
                "error": null
            },
            {
                "weights": null,
                "bias": null,
                "activation": 0,
                "error": null
            },
            {
                "weights": null,
                "bias": null,
                "activation": 0,
                "error": null
            },
            {
                "weights": null,
                "bias": null,
                "activation": 0,
                "error": null
            },
            {
                "weights": null,
                "bias": null,
                "activation": 0,
                "error": null
            },
            {
                "weights": null,
                "bias": null,
                "activation": 0,
                "error": null
            }
        ],
        [
            {
                "weights": [
                    0.008942672900821957,
                    -0.24678093799354306,
                    0.21147429300394982,
                    0.0430619661236582,
                    -0.08043059297836563,
                    -0.25016526917910387,
                    -0.48823751636925417,
                    -0.23470386112810926,
                    0.11294462974990527
                ],
                "bias": -0.4912052394957691,
                "activation": 0,
                "error": 0.0
            },
            {
                "weights": [
                    0.22255622339115422,
                    -0.15882623330118295,
                    -0.25803916343120936,
                    -0.45127317093606534,
                    0.3958468237988314,
                    -0.40207443722525227,
                    -0.42577198136466,
                    -0.11052883060965069,
                    0.0708608498285701
                ],
                "bias": -0.41062466079310433,
                "activation": 0,
                "error": 0.0
            },
            {
                "weights": [
                    0.2807174956393765,
                    0.32795717269248986,
                    0.4393495687429478,
                    -0.3049982149935166,
                    0.4487598155695309,
                    -0.43027066820564547,
                    -0.1605852001221861,
                    0.02398645154270012,
                    0.2527312241827809
                ],
                "bias": -0.1275044666895323,
                "activation": 0.9205504597552644,
                "error": 0.9053561795437125
            },
            {
                "weights": [
                    0.4260134190856694,
                    0.4161349829985242,
                    0.29228177477392187,
                    -0.27879435049141127,
                    -0.19125746258118065,
                    0.21778327109299372,
                    0.4947181194233888,
                    -0.3582825183543475,
                    0.06755355529816776
                ],
                "bias": -0.4606010805345323,
                "activation": 0.6736367528929924,
                "error": 0.7169283202958172
            },
            {
                "weights": [
                    -0.2109355330809336,
                    -0.15272330226705055,
                    -0.3389748685132806,
                    -0.23331849692572237,
                    0.035385656151388334,
                    0.22439436193635232,
                    -0.28436523135497727,
                    -0.45987326435906883,
                    -0.30258075646198446
                ],
                "bias": -0.18119955926650577,
                "activation": 0,
                "error": 0.0
            }
        ],
        [
            {
                "weights": [
                    0.4642233458509585,
                    0.2837827144974543,
                    -0.17509792070960684,
                    -0.23108495849803512,
                    0.04031682621248367
                ],
                "bias": -0.35323541734825525,
                "activation": 0,
                "error": 0.0
            },
            {
                "weights": [
                    0.1206313233942393,
                    0.268093858158425,
                    0.3800038423059301,
                    -0.3468530355811107,
                    0.16076793038222126
                ],
                "bias": -0.22765230642987622,
                "activation": 0,
                "error": 0.0
            },
            {
                "weights": [
                    -0.12440926635346938,
                    0.3755188784361436,
                    -0.23105762012821363,
                    0.2249351604969596,
                    0.11361236672775954
                ],
                "bias": -0.2179569452938278,
                "activation": 0,
                "error": 0.0
            },
            {
                "weights": [
                    -0.03207162717784912,
                    0.1130273420582949,
                    -0.26446540625443876,
                    0.1313409727438465,
                    -0.0777399302994165
                ],
                "bias": 0.16607201316329356,
                "activation": 0.011094319702478317,
                "error": 0.036112059454922296
            },
            {
                "weights": [
                    -0.18852705987326474,
                    0.10646500847375448,
                    0.24621384503486005,
                    -0.4779523625717105,
                    0.08516994205308034
                ],
                "bias": 0.16424385255270813,
                "activation": 0.06892761671695127,
                "error": 0.10050072806620139
            }
        ],
        [
            {
                "weights": [
                    -0.8774841211166157,
                    -0.4851348801155856,
                    -0.2376282608992196,
                    -0.7948766233958485,
                    -0.8817060084221934
                ],
                "bias": -0.4840719941059005,
                "activation": 0.3850751102202772,
                "error": -0.6149248897797228
            },
