[
    [
        {
            "weights": null,
            "bias": null,
            "activation": 0,
            "error": null
        },
        {
            "weights": null,
            "bias": null,
            "activation": 0,
            "error": null
        },
        {
            "weights": null,
            "bias": null,
            "activation": 0,
            "error": null
        },
        {
            "weights": null,
            "bias": null,
            "activation": 1,
            "error": null
        },
        {
            "weights": null,
            "bias": null,
            "activation": 1,
            "error": null
        },
        {
            "weights": null,
            "bias": null,
            "activation": 1,
            "error": null
        },
        {
            "weights": null,
            "bias": null,
            "activation": 0,
            "error": null
        },
        {
            "weights": null,
            "bias": null,
            "activation": 0,
            "error": null
        },
        {
            "weights": null,
            "bias": null,
            "activation": 0,
            "error": null
        }
    ],
    [
        {
            "weights": [
                0.27688238348263666,
                -0.20846095444104185,
                0.019739017978694928,
                0.24303774824841406,
                0.3647374732749741,
                -0.44376059157244174,
                0.15940974900417276,
                -0.3435250515886529,
                -0.2889637624207192
            ],
            "bias": 0.386749998782653,
            "activation": 0.5507646287335994,
            "error": 0.2045847212000784
        },
        {
            "weights": [
                -0.22588983034877685,
                0.4799597091757668,
                -0.06452107455469969,
                -0.03058567437884067,
                0.3019717806616359,
                0.29622167478281747,
                0.12896876132706947,
                -0.4457942362694083,
                -0.3231384168500586
            ],
            "bias": -0.4889006907201316,
            "activation": 0.07870709034548112,
            "error": 0.0
        },
        {
            "weights": [
                -0.17143886001811182,
                0.19597285653509808,
                0.4099404712392494,
                -0.4112599519461044,
                0.13530872303497277,
                -0.030785493052580114,
                0.1536085177974868,
                0.3800701411379011,
                0.03907189227783478
            ],
            "bias": 0.32632343340083164,
            "activation": 0.01958671143711993,
            "error": 1.0338213745067428
        },
        {
            "weights": [
                0.33133377513725315,
                -0.1868730611443281,
                -0.12566126945201994,
                0.13627002321530368,
                -0.052791952518988494,
                0.03314418751926329,
                -0.2520419511235268,
                0.37639860159412863,
                -0.3508862365036125
            ],
            "bias": -0.3845364343769906,
            "activation": 0,
            "error": 0.0
        },
        {
            "weights": [
                -0.34351517848455015,
                -0.15857279058529483,
                0.44044098930254055,
                0.49533427933816654,
                -0.4073190022807307,
                0.4899338531075128,
                -0.20703008333862205,
                -0.3179616232612479,
                0.12933749337791084
            ],
            "bias": -0.4867955522445982,
            "activation": 0.09115357792035045,
            "error": 0.0
        }
    ],
    [
        {
            "weights": [
                -0.024153060930310315,
                -0.10851426239398683,
                0.14971171886631407,
                0.023385878744225153,
                -0.49039176898393705
            ],
            "bias": 0.22572729734629218,
            "activation": 0.16211519976682698,
            "error": 0.0847135811948646
        },
        {
            "weights": [
                0.33683084455226286,
                -0.02382191123355327,
                -0.44447045303473937,
                -0.4959183860429808,
                0.378686088617417
            ],
            "bias": 0.10171697211892369,
            "activation": 0.31116941122533726,
            "error": 0.0
        },
        {
            "weights": [
                0.48582544438068753,
                0.1208537615054659,
                -0.21683892005614158,
                -0.20264378388337112,
                -0.48024600015044416
            ],
            "bias": -0.4745843763420936,
            "activation": 0,
            "error": 0.0
        },
        {
            "weights": [
                0.08196614576310016,
                -0.2708659468485391,
                -0.10700420244706893,
                -0.3404107592259693,
                0.12845347988895545
            ],
            "bias": -0.017140797679966707,
            "activation": 0.016297319462157157,
            "error": 0.0
        },
        {
            "weights": [
                -0.30681666093115667,
                0.17677568543543654,
                0.0724964730749853,
                -0.1864524340214957,
                -0.4266085539547916
            ],
            "bias": -0.41474635150295325,
            "activation": 0,
            "error": 0.0
        }
    ],
    [
        {
            "weights": [
                0.4010474183235803,
                -0.0850837125860389,
                0.30718279686156236,
                0.1854423366337456,
                0.06595878234330987
            ],
            "bias": 0.12376027609313779,
            "activation": 0.4822892005181016,
            "error": 0.5346942486894978
        },
        {
            "weights": [
                -0.14855503942290293,
                0.1995550083387924,
                0.2586339147565111,
                -0.3510887158951263,
                -0.36063177229225607
            ],
            "bias": 0.20390519208084665,
            "activation": 0.5177107994818986,
            "error": -0.5346942486894977
        }
    ]
]